svm_type c_svc
kernel_type rbf
gamma 0.5
nr_class 2
total_sv 554
rho 1.45494
label 1 -1
probA -2.25888
probB -0.0248174
nr_sv 299 255
SV
8 1:-0.995476 2:-0.890982 3:-0.99748 4:0.463957 5:-0.0277818 6:-0.878106 7:0.358099 8:-0.992905 9:-0.999729 10:-0.00718481 11:0.445022 12:-0.999839 13:0.623756 14:-0.99984 15:-0.986881 16:-0.961633 17:-1 18:-1 19:-1 20:-1 21:-0.985219 22:-0.975543 23:-1 24:-1 25:-1 26:-1 27:-0.95149 28:-0.9794 29:-1 30:-1 31:-1 32:-1 33:-0.960638 34:-0.967826 35:-0.890413 36:-1 37:-1 38:-0.822171 39:-1 40:-1 41:-0.864445 42:-1 43:-1 44:-0.885463 45:-0.996205 46:-1 47:-0.98951 48:-1 49:-0.995294 50:-0.992248 51:-1 52:-1 53:-1 54:-1 55:-0.997382 56:-0.991632 57:-0.993528 58:-1 59:-1 60:-1 61:-1 62:-0.986842 63:-1 64:-1 65:-0.97619 66:-0.95122 67:-0.944444 68:-1 69:-0.939394 70:-0.0456432 71:-0.393945 
8 1:-0.998586 2:-0.752439 3:-0.710103 4:0.554211 5:0.0996223 6:-0.991958 7:0.420638 8:-0.896581 9:-0.99993 10:-0.00727271 11:0.445126 12:-0.999963 13:0.622259 14:-0.999964 15:-0.934192 16:-0.91123 17:-1 18:-1 19:-1 20:-1 21:-1 22:-1 23:-1 24:-1 25:-1 26:-1 27:-1 28:-1 29:-1 30:-1 31:-1 32:-1 33:-0.980571 34:-0.930475 35:-0.748514 36:-1 37:-1 38:-1 39:-1 40:-1 41:-1 42:-1 43:-1 44:-0.745705 45:-0.998735 46:-1 47:-1 48:-1 49:-1 50:-1 51:-0.99505 52:-1 53:-1 54:-0.996024 55:-1 56:-1 57:-1 58:-0.993884 59:-1 60:-1 61:-0.972222 62:-1 63:-1 64:-0.974359 65:-1 66:-1 67:-1 68:-1 69:-1 70:-0.53483 71:-0.1042 
8 1:-1 2:-0.657676 3:-0.594395 4:0.51681 5:-0.120203 6:-0.998907 7:0.380831 8:-0.965463 9:-0.999996 10:-0.0072643 11:0.445143 12:-0.999997 13:0.62227 14:-0.999997 15:-1 16:-1 17:-1 18:-1 19:-1 20:-1 21:-1 22:-1 23:-1 24:-1 25:-1 26:-1 27:-1 28:-1 29:-1 30:-1 31:-1 32:-1 33:-0.999306 34:-0.950291 35:-0.64929 36:-1 37:-1 38:-1 39:-1 40:-1 41:-1 42:-1 43:-1 44:-0.65959 45:-0.998735 46:-1 47:-1 48:-1 49:-1 50:-1 51:-1 52:-1 53:-1 54:-1 55:-1 56:-1 57:-1 58:-1 59:-1 60:-1 61:-1 62:-1 63:-1 64:-1 65:-0.97619 66:-1 67:-1 68:-1 69:-1 70:-0.900494 71:-0.511886 
8 1:-0.995759 2:-0.891965 3:-0.997551 4:0.464242 5:-0.0283186 6:-0.878479 7:0.363673 8:-0.994373 9:-0.99969 10:-0.00729037 11:0.445139 12:-0.999864 13:0.622275 14:-0.999862 15:-0.98665 16:-0.960259 17:-1 18:-1 19:-1 20:-1 21:-0.984948 22:-0.987777 23:-1 24:-1 25:-1 26:-1 27:-0.934537 28:-0.984474 29:-1 30:-1 31:-1 32:-1 33:-0.975042 34:-0.97748 35:-0.891017 36:-1 37:-1 38:-0.822846 39:-1 40:-1 41:-0.864283 42:-1 43:-1 44:-0.887102 45:-0.996205 46:-0.993789 47:-1 48:-0.995434 49:-1 50:-1 51:-0.99505 52:-1 53:-1 54:-1 55:-0.997382 56:-1 57:-1 58:-1 59:-1 60:-0.989691 61:-1 62:-1 63:-0.979381 64:-1 65:-0.97619 66:-0.902439 67:-1 68:-0.909091 69:-0.878788 70:0.116685 71:-0.313437 
8 1:-0.992366 2:-0.753062 3:-0.683247 4:0.551934 5:0.0248238 6:-0.992922 7:0.40023 8:-0.978993 9:-0.995514 10:-0.0071314 11:0.446339 12:-0.999348 13:0.625237 14:-0.999111 15:-0.984305 16:-0.945354 17:-1 18:-1 19:-1 20:-1 21:-0.941277 22:-0.866885 23:-1 24:-1 25:-1 26:-1 27:-0.699386 28:-0.801297 29:-1 30:-1 31:-1 32:-1 33:-0.714674 34:-0.852642 35:-0.719397 36:-1 37:-1 38:-0.566989 39:-1 40:-1 41:-0.68413 42:-1 43:-1 44:-0.731379 45:-0.998735 46:-1 47:-0.993007 48:-0.990868 49:-1 50:-1 51:-1 52:-0.99187 53:-1 54:-0.988072 55:-0.992147 56:-0.991632 57:-0.993528 58:-0.987768 59:-0.993056 60:-0.979381 61:-0.972222 62:-1 63:-0.958763 64:-1 65:-1 66:-0.902439 67:-0.944444 68:-0.818182 69:-1 70:-0.397431 71:-0.417221 
0.0007226572155260122 1:-0.995476 2:-0.890723 3:-0.997639 4:0.464511 5:-0.0295489 6:-0.877316 7:0.376843 8:-0.996654 9:-0.999453 10:-0.00686644 11:0.445249 12:-0.999865 13:0.622222 14:-0.999851 15:-0.983457 16:-0.536768 17:-1 18:-1 19:-1 20:-1 21:-0.940225 22:-0.904242 23:-1 24:-1 25:-1 26:-1 27:-0.937662 28:-0.952047 29:-1 30:-1 31:-1 32:-1 33:-0.983436 34:-0.990577 35:-0.884018 36:-1 37:-1 38:-0.823506 39:-1 40:-1 41:-0.865179 42:-1 43:-1 44:-0.887355 45:-0.998735 46:-0.993789 47:-0.993007 48:-0.995434 49:-1 50:-1 51:-1 52:-1 53:-1 54:-0.992048 55:-0.997382 56:-1 57:-0.993528 58:-1 59:-1 60:-0.989691 61:-1 62:-0.986842 63:-0.979381 64:-1 65:-1 66:-0.95122 67:-1 68:-0.818182 69:-0.939394 70:0.0343349 71:-0.320377 
8 1:-0.963246 2:-0.963419 3:-0.997829 4:0.499884 5:-0.0542302 6:-0.960642 7:0.231314 8:-0.516612 9:-0.995546 10:0.0399321 11:0.619324 12:-0.998927 13:0.622181 14:-0.998825 15:-0.982238 16:-0.978545 17:-0.936598 18:-0.886932 19:-1 20:-1 21:-0.934634 22:-0.89963 23:-0.920253 24:-0.873387 25:-1 26:-1 27:-0.845359 28:-0.849338 29:-0.88327 30:-0.86395 31:-0.964876 32:-0.919607 33:-0.852411 34:-0.90475 35:-0.96285 36:-0.938328 37:-1 38:-0.940413 39:-0.95591 40:-1 41:-0.95417 42:-0.941167 43:-0.934769 44:-0.959046 45:-0.98735 46:-0.99793 47:-0.979021 48:-0.96347 49:-0.962353 50:-0.953488 51:-0.965347 52:-0.934959 53:-0.912162 54:-0.956262 55:-0.981675 56:-0.945607 57:-0.980583 58:-0.944954 59:-0.965278 60:-0.958763 61:-0.986111 62:-0.973684 63:-0.938144 64:-0.974359 65:-1 66:-1 67:-1 68:-1 69:-1 70:-0.226876 71:-0.319709 
8 1:-0.99689 2:-0.890723 3:-0.997522 4:0.46398 5:-0.0277018 6:-0.87826 7:0.357245 8:-0.991342 9:-0.99977 10:-0.00726892 11:0.445113 12:-0.999905 13:0.62228 14:-0.999907 15:-1 16:-1 17:-1 18:-1 19:-1 20:-1 21:-0.94117 22:-0.920188 23:-1 24:-1 25:-1 26:-1 27:-0.95117 28:-0.908063 29:-1 30:-1 31:-1 32:-1 33:-0.974394 34:-0.990812 35:-0.890637 36:-1 37:-1 38:-0.823547 39:-1 40:-1 41:-0.866895 42:-1 43:-1 44:-0.885391 45:-0.998735 46:-1 47:-0.996503 48:-0.995434 49:-1 50:-0.996124 51:-1 52:-0.99187 53:-1 54:-1 55:-1 56:-0.995816 57:-0.993528 58:-1 59:-1 60:-1 61:-0.986111 62:-0.986842 63:-0.938144 64:-1 65:-1 66:-1 67:-0.944444 68:-1 69:-1 70:-0.560987 71:-0.49287 
4.578380844876468 1:-0.976534 2:-0.972382 3:-0.980032 4:0.511695 5:-0.0250253 6:-0.984576 7:0.395237 8:-0.993842 9:-0.998501 10:-0.0069434 11:0.445614 12:-0.999569 13:0.621969 14:-0.999587 15:-0.976627 16:-0.79312 17:-1 18:-1 19:-0.961106 20:-0.739141 21:-1 22:-1 23:-0.94127 24:-0.835628 25:-1 26:-1 27:-1 28:-1 29:-0.871365 30:-0.796724 31:-1 32:-1 33:-0.945891 34:-0.938942 35:-0.969802 36:-1 37:-0.964335 38:-1 39:-0.963275 40:-1 41:-1 42:-0.952602 43:-1 44:-0.96781 45:-0.968374 46:-0.995859 47:-0.982517 48:-0.977169 49:-0.995294 50:-0.968992 51:-0.985149 52:-0.98374 53:-0.925676 54:-0.992048 55:-0.992147 56:-0.974895 57:-0.993528 58:-0.993884 59:-1 60:-0.989691 61:-1 62:-0.986842 63:-0.979381 64:-0.948718 65:-1 66:-0.902439 67:-0.944444 68:-0.818182 69:-1 70:-0.278521 71:-0.615854 
7.286786645975945 1:-0.994345 2:-0.751735 3:-0.685872 4:0.552651 5:0.050661 6:-0.992794 7:0.406333 8:-0.960626 9:-0.997908 10:-0.00721551 11:0.445035 12:-0.9995 13:0.622573 14:-0.999404 15:-0.990957 16:-0.91542 17:-1 18:-1 19:-1 20:-1 21:-1 22:-1 23:-0.702408 24:-0.708973 25:-1 26:-1 27:-1 28:-1 29:-1 30:-1 31:-1 32:-1 33:-0.684006 34:-0.954789 35:-0.714625 36:-1 37:-1 38:-1 39:-0.684236 40:-1 41:-1 42:-1 43:-1 44:-0.736232 45:-0.998735 46:-0.99793 47:-0.993007 48:-1 49:-0.985882 50:-0.992248 51:-0.99505 52:-1 53:-0.97973 54:-1 55:-0.997382 56:-0.995816 57:-1 58:-0.987768 59:-1 60:-0.989691 61:-0.972222 62:-1 63:-0.958763 64:-1 65:-1 66:-1 67:-1 68:-1 69:-1 70:-0.15863 71:-0.376834 
8 1:-0.976534 2:-0.958887 3:-0.998084 4:0.474858 5:-0.0320615 6:-0.955881 7:0.398953 8:-0.997291 9:-0.998156 10:-0.00673049 11:0.444757 12:-0.999749 13:0.622347 14:-0.999655 15:-0.880572 16:-0.86541 17:-1 18:-1 19:-1 20:-1 21:-0.877009 22:-0.872514 23:-1 24:-1 25:-1 26:-1 27:-0.896552 28:-0.916401 29:-1 30:-1 31:-1 32:-1 33:-0.960779 34:-0.955968 35:-0.956724 36:-1 37:-1 38:-0.936371 39:-1 40:-1 41:-0.951128 42:-1 43:-1 44:-0.957364 45:-0.99747 46:-0.993789 47:-0.98951 48:-0.995434 49:-1 50:-0.996124 51:-0.985149 52:-0.98374 53:-0.959459 54:-0.992048 55:-0.97644 56:-0.983264 57:-0.909385 58:-0.938838 59:-0.930556 60:-0.989691 61:-0.986111 62:-1 63:-0.979381 64:-0.974359 65:-0.97619 66:-0.95122 67:-0.833333 68:-0.818182 69:-0.757576 70:-0.416339 71:-0.311171 
8 1:-0.994063 2:-0.914362 3:-0.915736 4:0.432119 5:0.0140996 6:-0.980865 7:0.35577 8:-0.957612 9:-0.999598 10:-0.00731813 11:0.445112 12:-0.999662 13:0.622132 14:-0.999663 15:-0.993985 16:-0.988426 17:-0.98843 18:-0.994671 19:-1 20:-1 21:-1 22:-1 23:-1 24:-1 25:-1 26:-1 27:-0.988116 28:-0.996471 29:-0.949058 30:-0.910916 31:-0.994603 32:-0.977676 33:-0.976324 34:-0.93556 35:-0.909001 36:-0.859348 37:-1 38:-1 39:-1 40:-0.898593 41:-0.896774 42:-0.869308 43:-0.858402 44:-0.910787 45:-0.99494 46:-0.995859 47:-0.98951 48:-0.995434 49:-1 50:-0.996124 51:-1 52:-0.97561 53:-1 54:-0.996024 55:-0.997382 56:-0.995816 57:-0.993528 58:-1 59:-1 60:-1 61:-1 62:-1 63:-0.958763 64:-1 65:-0.928571 66:-1 67:-1 68:-1 69:-1 70:-0.260888 71:-0.526678 
8 1:-0.99067 2:-0.905984 3:-0.902222 4:0.429242 5:-0.0285546 6:-0.981762 7:0.386612 8:-0.996756 9:-0.999287 10:-0.00722897 11:0.44524 12:-0.999477 13:0.622324 14:-0.999498 15:-0.825334 16:-0.925819 17:-1 18:-1 19:-0.905479 20:-0.933391 21:-1 22:-1 23:-1 24:-1 25:-0.971119 26:-0.894107 27:-1 28:-1 29:-0.96533 30:-0.920359 31:-1 32:-1 33:-0.941461 34:-0.838036 35:-0.895645 36:-1 37:-0.881082 38:-1 39:-1 40:-0.885956 41:-1 42:-0.851233 43:-1 44:-0.902094 45:-0.99494 46:-0.995859 47:-0.98951 48:-0.990868 49:-0.985882 50:-1 51:-0.985149 52:-0.97561 53:-0.97973 54:-0.996024 55:-0.994764 56:-0.995816 57:-1 58:-0.993884 59:-0.986111 60:-1 61:-0.958333 62:-0.986842 63:-1 64:-1 65:-0.97619 66:-1 67:-1 68:-1 69:-1 70:-0.288687 71:-0.413278 
1.914980970395042 1:-0.42324 2:-0.999038 3:-0.999454 4:0.488625 5:-0.0305127 6:-0.998697 7:0.387983 8:-0.998563 9:-0.943822 10:-0.0112631 11:0.450597 12:-0.99397 13:0.633936 14:-0.99138 15:-0.858143 16:-0.840903 17:-0.86077 18:-0.782445 19:-0.864634 20:-0.765339 21:-0.860769 22:-0.803918 23:-0.863004 24:-0.719453 25:-0.862879 26:-0.62074 27:-0.881505 28:-0.87841 29:-0.885614 30:-0.73795 31:-0.88968 32:-0.898421 33:-0.8467 34:-0.803523 35:-0.998254 36:-0.99759 37:-0.9981 38:-0.997525 39:-0.998194 40:-0.998099 41:-0.99808 42:-0.997291 43:-0.997265 44:-0.998076 45:-0.935484 46:-0.94824 47:-0.870629 48:-0.858447 49:-0.858824 50:-0.802326 51:-0.683168 52:-0.552846 53:-0.668919 54:-0.491054 55:-0.633508 56:-0.0669456 57:0.624595 58:0.400612 59:0.388889 60:0.309278 61:0.777778 62:-0.184211 63:0.237113 64:-0.025641 65:-0.452381 66:0.365854 67:-0.777778 68:-0.545455 69:-0.818182 70:-0.16231 71:0.0831668 
0.4031389096951494 1:-0.885496 2:-0.987857 3:-0.99382 4:0.476934 5:-0.036866 6:-0.990262 7:0.400043 8:-0.982127 9:-0.98437 10:-0.0027642 11:0.440719 12:-0.995563 13:0.623438 14:-0.995542 15:-0.849066 16:-0.613192 17:-0.913912 18:-0.644926 19:-0.862396 20:-0.617003 21:-0.869315 22:-0.65193 23:-0.877041 24:-0.786064 25:-0.875834 26:-0.283554 27:-0.870025 28:-0.890096 29:-0.884668 30:-0.835331 31:-0.968229 32:-0.895562 33:-0.964584 34:-0.925881 35:-0.983149 36:-0.974117 37:-0.982129 38:-0.978534 39:-0.98448 40:-0.983477 41:-0.984726 42:-0.980289 43:-0.979687 44:-0.986457 45:-0.944339 46:-0.919255 47:-0.916084 48:-0.940639 49:-0.901176 50:-0.926357 51:-0.886139 52:-0.821138 53:-0.891892 54:-0.94831 55:-0.95288 56:-0.962343 57:-0.883495 58:-0.938838 59:-0.861111 60:-0.814433 61:-0.763889 62:-0.802632 63:-0.773196 64:-0.794872 65:-0.666667 66:-0.658537 67:-0.777778 68:-0.636364 69:-1 70:-0.186649 71:-0.444944 
8 1:-0.985016 2:-0.973421 3:-0.979877 4:0.51091 5:-0.0356886 6:-0.985681 7:0.381356 8:-0.995985 9:-0.999142 10:-0.0073299 11:0.445112 12:-0.999772 13:0.622263 14:-0.999759 15:-0.997373 16:-0.976522 17:-0.993944 18:-0.964583 19:-0.999787 20:-0.986955 21:-0.958563 22:-0.84414 23:-1 24:-1 25:-0.89566 26:-0.855092 27:-1 28:-1 29:-0.970201 30:-0.862726 31:-1 32:-1 33:-0.997955 34:-0.97036 35:-0.971698 36:-0.95784 37:-0.968515 38:-0.958213 39:-1 40:-0.963485 41:-1 42:-0.953407 43:-1 44:-0.968767 45:-0.986085 46:-0.993789 47:-0.986014 48:-0.986301 49:-1 50:-1 51:-0.980198 52:-0.99187 53:-0.97973 54:-0.996024 55:-0.992147 56:-0.987448 57:-0.967638 58:-0.993884 59:-0.993056 60:-0.969072 61:-0.986111 62:-0.986842 63:-0.979381 64:-0.923077 65:-0.97619 66:-1 67:-0.944444 68:-0.909091 69:-1 70:-0.26473 71:-0.530903 
8 1:-0.977099 2:-0.95052 3:-0.998219 4:0.500288 5:-0.0536019 6:-0.94742 7:0.190745 8:-0.428972 9:-0.996312 10:-0.00689588 11:0.441683 12:-0.999263 13:0.618212 14:-0.999085 15:-0.799392 16:-0.932262 17:-1 18:-1 19:-0.824675 20:-0.833927 21:-1 22:-1 23:-0.831875 24:-0.815743 25:-1 26:-1 27:-1 28:-1 29:-0.864998 30:-0.859198 31:-1 32:-1 33:-0.861398 34:-0.945315 35:-0.94872 36:-1 37:-0.940351 38:-1 39:-0.94078 40:-1 41:-1 42:-0.919995 43:-1 44:-0.946995 45:-0.975965 46:-0.977226 47:-0.98951 48:-0.972603 49:-0.981176 50:-0.996124 51:-0.970297 52:-0.99187 53:-0.986486 54:-0.992048 55:-0.997382 56:-0.991632 57:-0.987055 58:-0.993884 59:-0.986111 60:-0.948454 61:-0.986111 62:-0.986842 63:-0.979381 64:-0.897436 65:-0.952381 66:-1 67:-0.833333 68:-0.909091 69:-0.878788 70:-0.275255 71:-0.61252 
8 1:-0.961832 2:-0.965761 3:-0.996488 4:0.502716 5:-0.0522206 6:-0.96449 7:0.282654 8:-0.757346 9:-0.996116 10:-0.00699093 11:0.442717 12:-0.999144 13:0.619196 14:-0.999029 15:-0.98267 16:-0.956316 17:-0.948519 18:-0.834198 19:-1 20:-1 21:-0.919115 22:-0.882345 23:-0.894675 24:-0.827622 25:-0.875732 26:-0.878849 27:-0.87028 28:-0.919838 29:-1 30:-1 31:-0.85586 32:-0.87017 33:-0.949033 34:-0.979709 35:-0.964642 36:-0.943445 37:-1 38:-0.94373 39:-0.958533 40:-0.956401 41:-0.957762 42:-1 43:-0.944522 44:-0.963104 45:-0.954459 46:-0.989648 47:-0.947552 48:-0.972603 49:-0.952941 50:-0.984496 51:-0.990099 52:-0.97561 53:-0.939189 54:-0.968191 55:-0.984293 56:-0.945607 57:-1 58:-0.993884 59:-0.993056 60:-0.969072 61:-0.986111 62:-0.960526 63:-0.938144 64:-0.948718 65:-0.880952 66:-1 67:-0.944444 68:-1 69:-1 70:-0.000119762 71:-0.454169 
6.305578322779473 1:-0.977099 2:-0.959079 3:-0.998016 4:0.474661 5:-0.0320207 6:-0.956076 7:0.398446 8:-0.997562 9:-0.998357 10:-0.00730782 11:0.445248 12:-0.999756 13:0.622427 14:-0.999673 15:-0.884084 16:-0.891582 17:-1 18:-1 19:-1 20:-1 21:-0.881884 22:-0.869664 23:-1 24:-1 25:-1 26:-1 27:-0.903124 28:-0.91297 29:-1 30:-1 31:-1 32:-1 33:-0.958324 34:-0.98453 35:-0.956804 36:-1 37:-1 38:-0.936499 39:-1 40:-1 41:-0.951296 42:-1 43:-1 44:-0.957618 45:-0.99747 46:-0.99793 47:-0.996503 48:-0.995434 49:-1 50:-0.996124 51:-0.99505 52:-0.97561 53:-0.959459 54:-0.992048 55:-0.986911 56:-0.958159 57:-0.87055 58:-0.938838 59:-0.993056 60:-0.969072 61:-0.958333 62:-1 63:-0.979381 64:-0.948718 65:-0.952381 66:-0.95122 67:-0.888889 68:-0.818182 69:-0.818182 70:-0.497764 71:-0.315374 
5.06753227608627 1:-0.999717 2:-0.389493 3:-0.28286 4:0.552938 5:0.12812 6:-0.996889 7:0.403725 8:-0.938682 9:-1 10:-0.00726574 11:0.445143 12:-0.999998 13:0.62227 14:-0.999998 15:-1 16:-1 17:-1 18:-1 19:-1 20:-1 21:-1 22:-1 23:-1 24:-1 25:-1 26:-1 27:-1 28:-1 29:-1 30:-1 31:-1 32:-1 33:-1 34:-1 35:-0.39077 36:-1 37:-1 38:-0.0800688 39:-1 40:-0.292127 41:-1 42:-1 43:-1 44:-0.390114 45:-0.998735 46:-1 47:-1 48:-1 49:-1 50:-1 51:-1 52:-1 53:-1 54:-1 55:-1 56:-1 57:-1 58:-1 59:-1 60:-1 61:-1 62:-0.986842 63:-1 64:-0.974359 65:-1 66:-1 67:-1 68:-1 69:-1 70:-0.603255 71:-0.262282 
2.493945804605577 1:-0.891716 2:-0.987927 3:-0.993724 4:0.476965 5:-0.0352846 6:-0.990541 7:0.396772 8:-0.987154 9:-0.984938 10:-0.0138471 11:0.438238 12:-0.996586 13:0.620189 14:-0.99652 15:-0.912094 16:-0.63955 17:-0.864604 18:-0.661701 19:-0.8508 20:-0.629478 21:-0.863658 22:-0.648668 23:-0.882786 24:-0.751254 25:-0.872924 26:-0.269225 27:-0.867277 28:-0.88045 29:-0.886586 30:-0.830201 31:-0.966131 32:-0.900319 33:-0.963715 34:-0.904338 35:-0.98282 36:-0.976353 37:-0.983121 38:-0.978574 39:-0.984234 40:-0.983521 41:-0.984723 42:-0.980361 43:-0.979662 44:-0.986025 45:-0.958254 46:-0.921325 47:-0.916084 48:-0.945205 49:-0.92 50:-0.930233 51:-0.871287 52:-0.894309 53:-0.858108 54:-0.952286 55:-0.950262 56:-0.970711 57:-0.902913 58:-0.944954 59:-0.923611 60:-0.793814 61:-0.763889 62:-0.723684 63:-0.835052 64:-0.666667 65:-0.714286 66:-0.219512 67:-0.944444 68:-0.909091 69:-0.939394 70:-0.173526 71:-0.417678 
2.005133232390878 1:-0.366129 2:-0.999425 3:-0.999985 4:0.487626 5:-0.0305355 6:-0.998742 7:0.388065 8:-0.997837 9:-0.949359 10:-0.0135367 11:0.445472 12:-0.994291 13:0.623377 14:-0.992662 15:-0.854521 16:-0.872942 17:-0.844439 18:-0.770376 19:-0.847825 20:-0.735738 21:-0.861684 22:-0.872119 23:-0.862348 24:-0.833675 25:-0.864601 26:-0.73119 27:-0.851751 28:-0.855764 29:-0.851332 30:-0.701262 31:-0.856999 32:-0.859444 33:-0.849119 34:-0.84667 35:-0.998149 36:-0.997921 37:-0.998543 38:-0.998181 39:-0.998645 40:-0.998644 41:-0.998607 42:-0.998233 43:-0.998331 44:-0.998862 45:-0.931689 46:-0.929607 47:-0.877622 48:-0.621005 49:-0.567059 50:-0.20155 51:-0.0891089 52:0.95122 53:0.844595 54:0.0536779 55:-0.513089 56:-0.242678 57:-0.249191 58:-0.584098 59:-0.6875 60:-0.505155 61:-0.513889 62:-0.644737 63:-0.649485 64:-0.487179 65:-0.880952 66:-0.0731707 67:-0.722222 68:-0.636364 69:-0.878788 70:-0.246788 71:-0.191189 
8 1:-0.989539 2:-0.946705 3:-0.936984 4:0.470702 5:-0.0468098 6:-0.997665 7:0.392652 8:-0.991336 9:-0.999697 10:-0.00729794 11:0.44536 12:-0.999679 13:0.622267 14:-0.999697 15:-0.990253 16:-0.921565 17:-0.979008 18:-0.878825 19:-1 20:-1 21:-0.957468 22:-0.903446 23:-1 24:-1 25:-0.971888 26:-0.956974 27:-1 28:-1 29:-0.956734 30:-0.938909 31:-1 32:-1 33:-0.995054 34:-0.991504 35:-0.94469 36:-0.914668 37:-1 38:-0.918009 39:-1 40:-0.935325 41:-1 42:-0.916036 43:-1 44:-0.943284 45:-0.99747 46:-1 47:-0.993007 48:-0.995434 49:-1 50:-0.996124 51:-1 52:-0.99187 53:-1 54:-0.996024 55:-1 56:-0.987448 57:-0.993528 58:-0.981651 59:-1 60:-0.969072 61:-0.958333 62:-0.960526 63:-0.938144 64:-0.923077 65:-1 66:-0.804878 67:-0.944444 68:-0.909091 69:-0.818182 70:-0.568321 71:-0.404279 
8 1:-0.990953 2:-0.942635 3:-0.925413 4:0.493161 5:-0.0497593 6:-0.999759 7:0.386307 8:-0.990168 9:-0.999129 10:-0.00741954 11:0.445005 12:-0.999495 13:0.622277 14:-0.999481 15:-0.98867 16:-0.929136 17:-0.990831 18:-0.960212 19:-1 20:-1 21:-0.999192 22:-0.986587 23:-0.964479 24:-0.862156 25:-1 26:-1 27:-0.989032 28:-0.91486 29:-1 30:-1 31:-0.964223 32:-0.952757 33:-0.994834 34:-0.979136 35:-0.933882 36:-0.902801 37:-1 38:-0.907994 39:-0.931677 40:-0.926642 41:-0.927473 42:-1 43:-0.899622 44:-0.935582 45:-0.99747 46:-1 47:-0.996503 48:-1 49:-0.995294 50:-1 51:-0.980198 52:-1 53:-0.986486 54:-0.992048 55:-1 56:-0.983264 57:-0.980583 58:-0.969419 59:-0.986111 60:-0.979381 61:-1 62:-0.986842 63:-1 64:-0.948718 65:-1 66:-0.902439 67:-1 68:-1 69:-0.939394 70:-0.253329 71:-0.247544 
1.625132968646091 1:-0.999152 2:-0.414352 3:-0.304085 4:0.56482 5:-0.0826881 6:-0.995502 7:0.381579 8:-0.993234 9:-0.999951 10:-0.00722981 11:0.445189 12:-0.999941 13:0.622285 14:-0.999942 15:-0.946652 16:-0.865491 17:-1 18:-1 19:-1 20:-1 21:-1 22:-1 23:-1 24:-1 25:-1 26:-1 27:-1 28:-1 29:-1 30:-1 31:-1 32:-1 33:-0.996511 34:-0.968607 35:-0.401575 36:-1 37:-1 38:-1 39:-1 40:-1 41:-1 42:-1 43:-1 44:-0.417668 45:-0.998735 46:-1 47:-1 48:-1 49:-1 50:-1 51:-1 52:-1 53:-1 54:-0.996024 55:-1 56:-0.995816 57:-1 58:-0.993884 59:-1 60:-1 61:-0.986111 62:-1 63:-1 64:-1 65:-1 66:-1 67:-1 68:-1 69:-1 70:-0.557053 71:-0.596936 
8 1:-0.994063 2:-0.882422 3:-0.927038 4:0.39144 5:-0.0228577 6:-0.933576 7:0.376838 8:-0.996798 9:-0.999356 10:-0.00731813 11:0.444964 12:-0.999796 13:0.622273 14:-0.999778 15:-0.959922 16:-0.790056 17:-1 18:-1 19:-1 20:-1 21:-0.970647 22:-0.746823 23:-1 24:-1 25:-1 26:-1 27:-0.973862 28:-0.841666 29:-1 30:-1 31:-1 32:-1 33:-0.961242 34:-0.894991 35:-0.873714 36:-1 37:-1 38:-0.816842 39:-1 40:-1 41:-0.857891 42:-1 43:-1 44:-0.875234 45:-0.99494 46:-1 47:-1 48:-1 49:-0.985882 50:-1 51:-1 52:-1 53:-0.952703 54:-1 55:-1 56:-1 57:-0.967638 58:-1 59:-1 60:-1 61:-0.958333 62:-1 63:-1 64:-1 65:-0.97619 66:-1 67:-1 68:-1 69:-1 70:-0.927804 71:-0.949155 
8 1:-0.996325 2:-0.816235 3:-0.796819 4:0.399934 5:-0.076503 6:-0.980175 7:0.409565 8:-0.979412 9:-0.999461 10:-0.00735346 11:0.445142 12:-0.999793 13:0.622239 14:-0.999781 15:-0.995653 16:-0.873065 17:-1 18:-1 19:-1 20:-1 21:-1 22:-1 23:-0.988865 24:-0.787204 25:-1 26:-1 27:-1 28:-1 29:-1 30:-1 31:-1 32:-1 33:-0.824638 34:-0.952553 35:-0.813711 36:-1 37:-1 38:-1 39:-0.785879 40:-1 41:-1 42:-1 43:-1 44:-0.801982 45:-0.99747 46:-1 47:-0.986014 48:-0.977169 49:-0.995294 50:-0.996124 51:-1 52:-1 53:-1 54:-1 55:-1 56:-1 57:-1 58:-1 59:-1 60:-1 61:-0.986111 62:-1 63:-1 64:-1 65:-1 66:-1 67:-1 68:-0.909091 69:-1 70:-0.647691 71:-0.866878 
8 1:-0.98756 2:-0.818649 3:-0.760362 4:0.526142 5:-0.0398394 6:-0.996571 7:0.386269 8:-0.99266 9:-0.993943 10:-0.0063239 11:0.44559 12:-0.998951 13:0.632803 14:-0.998688 15:-0.722044 16:-0.561625 17:-1 18:-1 19:-1 20:-1 21:-0.718645 22:-0.521397 23:-1 24:-1 25:-1 26:-1 27:-0.975068 28:-0.858516 29:-1 30:-1 31:-1 32:-1 33:-0.978032 34:-0.807762 35:-0.797963 36:-1 37:-1 38:-0.692288 39:-1 40:-1 41:-0.755631 42:-1 43:-1 44:-0.791268 45:-0.99241 46:-0.99793 47:-0.993007 48:-1 49:-1 50:-1 51:-1 52:-1 53:-0.993243 54:-0.996024 55:-0.992147 56:-0.987448 57:-0.993528 58:-0.993884 59:-0.993056 60:-0.989691 61:-0.958333 62:-0.921053 63:-0.896907 64:-0.948718 65:-0.904762 66:-0.902439 67:-0.888889 68:-1 69:-0.939394 70:-0.0402263 71:-0.116769 
1.768780311369861 1:-0.568278 2:-0.997692 3:-0.996547 4:0.488964 5:-0.0297957 6:-0.999639 7:0.388265 8:-0.997455 9:-0.947716 10:-0.0129328 11:0.454375 12:-0.992662 13:0.626022 14:-0.990566 15:-0.916179 16:-0.764137 17:-0.874097 18:-0.680969 19:-0.892365 20:-0.635678 21:-0.877593 22:-0.691115 23:-0.876153 24:-0.565166 25:-0.873462 26:-0.452695 27:-0.890751 28:-0.776746 29:-0.899525 30:-0.572367 31:-0.908387 32:-0.77296 33:-0.92078 34:-0.720069 35:-0.996567 36:-0.994587 37:-0.995867 38:-0.994909 39:-0.996229 40:-0.996383 41:-0.996593 42:-0.995441 43:-0.995124 44:-0.996514 45:-0.955724 46:-0.960663 47:-0.961538 48:-0.890411 49:-0.901176 50:-0.922481 51:-0.539604 52:-0.439024 53:-0.472973 54:-0.467197 55:-0.667539 57:0.656958 58:-0.198777 59:-0.388889 60:-0.484536 61:-0.555556 62:-0.565789 63:-0.278351 64:-0.512821 65:-0.666667 66:-1 67:-0.944444 68:-1 69:-1 70:-0.424202 71:-0.1996 
0.007391916919588791 1:-0.830082 2:-0.992692 3:-0.994143 4:0.494482 5:-0.0324708 6:-0.995473 7:0.38532 8:-0.995467 9:-0.981743 10:-0.0113035 11:0.440599 12:-0.993747 13:0.626092 14:-0.993523 15:-0.931275 16:-0.633035 17:-0.948917 18:-0.656663 19:-0.960257 20:-0.677643 21:-0.900827 22:-0.816844 23:-0.896666 24:-0.859244 25:-0.897895 26:-0.765855 27:-0.874653 28:-0.872302 29:-0.870535 30:-0.643049 31:-0.906539 32:-0.936844 33:-0.963816 34:-0.892065 35:-0.989492 36:-0.985209 37:-0.988389 38:-0.986498 39:-0.990431 40:-0.990005 41:-0.989745 42:-0.986507 43:-0.98639 44:-0.989678 45:-0.962049 46:-0.983437 47:-0.965035 48:-0.858447 49:-0.327059 50:-0.914729 51:-0.970297 52:-0.943089 53:-0.932432 54:-0.936382 55:-0.926702 56:-0.92887 57:-0.851133 58:-0.87156 59:-0.763889 60:-0.164948 61:-0.333333 62:-0.447368 63:-0.731959 64:-0.820513 65:-0.904762 66:-0.95122 67:-1 68:-1 69:-0.939394 70:-0.0810836 71:-0.216954 
8 1:-0.995759 2:-0.897468 3:-0.946927 4:0.405532 5:-0.0525811 6:-0.933501 7:0.425169 8:-0.983081 9:-0.999848 10:-0.00726976 11:0.445137 12:-0.999857 13:0.622262 14:-0.999861 15:-1 16:-1 17:-1 18:-1 19:-0.960436 20:-0.986056 21:-1 22:-1 23:-0.937716 24:-0.899894 25:-1 26:-1 27:-1 28:-1 29:-0.96048 30:-0.879473 31:-1 32:-1 33:-1 34:-1 35:-0.890171 36:-1 37:-0.87629 38:-1 39:-0.878333 40:-1 41:-1 42:-0.839129 43:-1 44:-0.889995 45:-0.991145 46:-1 47:-1 48:-1 49:-1 50:-1 51:-1 52:-1 53:-1 54:-1 55:-0.992147 56:-1 57:-1 58:-1 59:-1 60:-0.958763 61:-1 62:-1 63:-1 64:-1 65:-0.952381 66:-1 67:-1 68:-1 69:-0.939394 70:-0.917316 71:-0.955626 
8 1:-0.992649 2:-0.914684 3:-0.91306 4:0.437554 5:-0.0368747 6:-0.98496 7:0.391885 8:-0.997671 9:-0.999723 10:-0.0072071 11:0.445059 12:-0.999812 13:0.622404 14:-0.99982 15:-0.988922 16:-0.866981 17:-1 18:-1 19:-1 20:-1 21:-0.958807 22:-0.854517 23:-1 24:-1 25:-1 26:-1 27:-0.958803 28:-0.898702 29:-1 30:-1 31:-1 32:-1 33:-0.992398 34:-0.953933 35:-0.912652 36:-1 37:-1 38:-0.868072 39:-1 40:-1 41:-0.899295 42:-1 43:-1 44:-0.909448 45:-0.998735 46:-1 47:-0.979021 48:-1 49:-1 50:-0.957364 51:-1 52:-0.97561 53:-1 54:-1 55:-1 56:-1 57:-0.993528 58:-1 59:-1 60:-0.989691 61:-1 62:-0.960526 63:-1 64:-1 65:-1 66:-1 67:-0.888889 68:-1 69:-1 70:-0.872397 71:-0.903601 
0.5956163413768806 1:-0.674866 2:-0.99247 3:-0.991758 4:0.481479 5:-0.0269777 6:-0.997636 7:0.385008 8:-0.994558 9:-0.9643 10:-0.0154486 11:0.441053 12:-0.988037 13:0.577306 14:-0.987302 15:-0.868105 16:-0.855137 17:-0.895691 18:-0.806437 19:-0.919381 20:-0.798265 21:-0.912871 22:-0.772892 23:-0.923752 24:-0.442814 25:-0.94272 26:-0.303576 27:-0.926501 28:-0.720701 29:-0.922088 30:-0.519978 31:-0.926095 32:-0.787869 33:-0.918609 34:-0.799987 35:-0.989601 36:-0.985475 37:-0.989462 38:-0.9863 39:-0.989461 40:-0.98972 41:-0.989719 42:-0.986495 43:-0.986457 44:-0.990175 45:-0.930424 46:-0.958592 47:-0.874126 48:-0.671233 49:-0.609412 50:-0.709302 51:-0.435644 52:0.325203 53:-0.493243 54:-0.789264 55:-0.895288 56:-0.803347 57:-0.702265 58:-0.492355 59:-0.444444 60:-0.443299 61:-0.694444 62:-0.802632 63:-0.85567 64:-0.871795 65:-0.904762 66:-0.902439 67:-1 68:-0.909091 69:-1 70:-0.163319 71:-0.228804 
0.476748336333097 1:-0.947413 2:-0.957145 3:-0.964438 4:0.450873 5:-0.0519901 6:-0.980143 7:0.412097 8:-0.961696 9:-0.986681 10:-0.00864208 11:0.446279 12:-0.998273 13:0.622646 14:-0.998347 15:-0.846932 16:-0.437861 17:-1 18:-1 19:-0.827207 20:-0.589404 21:-0.965821 22:-0.897762 23:-1 24:-1 25:-0.820538 26:-0.435465 27:-1 28:-1 29:-0.936488 30:-0.76283 31:-1 32:-1 33:-0.873798 34:-0.919665 35:-0.947677 36:-1 37:-0.944443 38:-0.933225 39:-1 40:-0.946279 41:-1 42:-0.929596 43:-1 44:-0.950509 45:-0.98229 46:-0.983437 47:-0.947552 48:-0.917808 49:-0.962353 50:-0.968992 51:-0.985149 52:-0.926829 53:-0.932432 54:-0.94831 55:-0.958115 56:-0.962343 57:-0.954693 58:-0.902141 59:-0.951389 60:-0.948454 61:-0.944444 62:-0.907895 63:-0.938144 64:-0.897436 65:-1 66:-0.95122 67:-0.833333 68:-1 69:-1 70:-0.467588 71:-0.593122 
8 1:-0.992932 2:-0.90728 3:-0.918299 4:0.552716 5:0.0238002 6:-0.972681 7:0.435344 8:-0.93617 9:-0.99976 10:-0.00737091 11:0.444968 12:-0.999842 13:0.622179 14:-0.999841 15:-0.990121 16:-0.99497 17:-1 18:-1 19:-1 20:-1 21:-0.955318 22:-0.908537 23:-1 24:-1 25:-1 26:-1 27:-0.951338 28:-0.923739 29:-1 30:-1 31:-1 32:-1 33:-0.968175 34:-0.926847 35:-0.904604 36:-1 37:-1 38:-0.858739 39:-1 40:-1 41:-0.890329 42:-1 43:-1 44:-0.903854 45:-0.99241 46:-1 47:-1 48:-1 49:-0.995294 50:-0.992248 51:-0.985149 52:-0.99187 53:-0.972973 54:-1 55:-0.994764 56:-1 57:-1 58:-1 59:-0.993056 60:-1 61:-0.986111 62:-0.960526 63:-0.979381 64:-1 65:-1 66:-0.902439 67:-1 68:-1 69:-1 70:-0.267843 71:-0.46355 
1.330501582570522 1:-0.974837 2:-0.93935 3:-0.931891 4:0.514833 5:-0.0125123 6:-0.994217 7:0.395847 8:-0.990254 9:-0.998192 10:-0.0081374 11:0.443816 12:-0.998724 13:0.62277 14:-0.998724 15:-0.960704 16:-0.849862 17:-0.969701 18:-0.852787 19:-1 20:-1 21:-0.972272 22:-0.853611 23:-1 24:-1 25:-0.949719 26:-0.545313 27:-0.940957 28:-0.798769 29:-1 30:-1 31:-0.939562 32:-0.854047 33:-0.984237 34:-0.916878 35:-0.935557 36:-0.90403 37:-1 38:-0.906034 39:-1 40:-0.927791 41:-0.92684 42:-1 43:-0.905865 44:-0.935211 45:-0.99241 46:-0.991718 47:-0.98951 48:-1 49:-0.990588 50:-0.988372 51:-0.985149 52:-0.918699 53:-0.898649 54:-0.960239 55:-0.981675 56:-0.974895 57:-0.97411 58:-0.981651 59:-0.993056 60:-0.969072 61:-0.972222 62:-0.973684 63:-0.958763 64:-0.974359 65:-1 66:-1 67:-1 68:-0.909091 69:-0.818182 70:0.0417601 71:-0.12096 
8 1:-0.973424 2:-0.958728 3:-0.997678 4:0.473295 5:-0.0346075 6:-0.953157 7:0.41583 8:-0.978504 9:-0.994359 10:-0.00733159 11:0.444609 12:-0.999386 13:0.622745 14:-0.999287 15:-0.833854 16:-0.885822 17:-1 18:-1 19:-0.850055 20:-0.797367 21:-1 22:-1 23:-1 24:-1 25:-0.881984 26:-0.808499 27:-1 28:-1 29:-0.926865 30:-0.904652 31:-1 32:-1 33:-0.965444 34:-0.963125 35:-0.948811 36:-1 37:-0.949291 38:-1 39:-1 40:-0.951055 41:-1 42:-0.930372 43:-1 44:-0.951063 45:-0.998735 46:-0.99793 47:-0.993007 48:-1 49:-1 50:-0.988372 51:-0.985149 52:-0.99187 53:-0.972973 54:-0.976143 55:-0.984293 56:-0.974895 57:-0.928803 58:-0.963303 59:-0.895833 60:-0.948454 61:-0.875 62:-0.934211 63:-0.979381 64:-0.846154 65:-0.928571 66:-0.95122 67:-0.944444 68:-1 69:-1 70:-0.553346 71:-0.362295 
2.569935419138701 1:-0.988974 2:-0.82645 3:-0.790148 4:0.486603 5:0.00189075 6:-0.999996 7:0.38776 8:-0.990544 9:-0.999303 10:-0.00754187 11:0.444612 12:-0.999263 13:0.620942 14:-0.999274 15:-0.96969 16:-0.810191 17:-1 18:-1 19:-0.961618 20:-0.768485 21:-1 22:-1 23:-1 24:-1 25:-0.969904 26:-0.670056 27:-1 28:-1 29:-0.932488 30:-0.636738 31:-1 32:-1 33:-0.993478 34:-0.965449 35:-0.817873 36:-1 37:-0.792882 38:-1 39:-1 40:-0.795413 41:-1 42:-0.734343 43:-1 44:-0.825153 45:-0.996205 46:-0.99793 47:-1 48:-0.990868 49:-0.990588 50:-1 51:-0.985149 52:-0.96748 53:-0.986486 54:-0.992048 55:-0.994764 56:-0.995816 57:-0.993528 58:-0.987768 59:-1 60:-1 61:-0.986111 62:-1 63:-0.979381 64:-0.974359 65:-0.952381 66:-0.902439 67:-0.944444 68:-0.454545 69:-0.878788 70:0.335689 71:0.0628635 
8 1:-0.990953 2:-0.953485 3:-0.997314 4:0.47152 5:-0.0273142 6:-0.950093 7:0.36688 8:-0.99114 9:-0.999382 10:-0.00728448 11:0.445192 12:-0.999911 13:0.622274 14:-0.999896 15:-0.997055 16:-0.980087 17:-1 18:-1 19:-1 20:-1 21:-0.987495 22:-0.931629 23:-1 24:-1 25:-1 26:-1 27:-0.891653 28:-0.914312 29:-1 30:-1 31:-1 32:-1 33:-0.959837 34:-0.963261 35:-0.950898 36:-1 37:-1 38:-0.926095 39:-1 40:-1 41:-0.944599 42:-1 43:-1 44:-0.949535 45:-0.998735 46:-1 47:-1 48:-0.986301 49:-1 50:-1 51:-0.99505 52:-0.97561 53:-0.993243 54:-1 55:-1 56:-0.991632 57:-0.993528 58:-1 59:-1 60:-1 61:-0.944444 62:-0.960526 63:-1 64:-0.948718 65:-0.809524 66:-0.95122 67:-1 68:-0.909091 69:-0.818182 70:-0.404059 71:-0.343265 
8 1:-0.999152 2:-0.772093 3:-0.731585 4:0.457743 5:0.048584 6:-0.998273 7:0.378325 8:-0.958818 9:-0.999926 10:-0.00723233 11:0.445127 12:-0.999926 13:0.622025 14:-0.999927 15:-0.974893 16:-0.978139 17:-1 18:-1 19:-1 20:-1 21:-1 22:-1 23:-1 24:-1 25:-1 26:-1 27:-1 28:-1 29:-1 30:-1 31:-1 32:-1 33:-0.99166 34:-0.937706 35:-0.770609 36:-1 37:-1 38:-1 39:-1 40:-0.732875 41:-1 42:-1 43:-1 44:-0.772371 45:-0.998735 46:-1 47:-1 48:-1 49:-1 50:-1 51:-1 52:-1 53:-0.993243 54:-1 55:-1 56:-1 57:-1 58:-0.993884 59:-1 60:-1 61:-1 62:-0.986842 63:-1 64:-1 65:-1 66:-1 67:-1 68:-1 69:-0.939394 70:-0.58317 71:-0.571052 
8 1:-0.991236 2:-0.917866 3:-0.97492 4:0.430414 5:-0.0330781 6:-0.931536 7:0.394244 8:-0.997363 9:-0.999554 10:-0.00728785 11:0.445442 12:-0.999705 13:0.622251 14:-0.999718 15:-0.949029 16:-0.914795 17:-1 18:-1 19:-0.928912 20:-0.88131 21:-1 22:-1 23:-1 24:-1 25:-0.961677 26:-0.622215 27:-1 28:-1 29:-0.963868 30:-0.855041 31:-1 32:-1 33:-0.98986 34:-0.980997 35:-0.913435 36:-1 37:-0.902849 38:-1 39:-1 40:-0.901651 41:-1 42:-0.874029 43:-1 44:-0.914662 45:-0.98988 46:-1 47:-1 48:-1 49:-1 50:-1 51:-1 52:-1 53:-1 54:-1 55:-1 56:-1 57:-0.851133 58:-1 59:-1 60:-1 61:-1 62:-1 63:-1 64:-1 65:-1 66:-1 67:-1 68:-1 69:-0.878788 70:-0.974691 71:-0.981076 
8 1:-0.978513 2:-0.9783 3:-0.988489 4:0.470073 5:0.000539822 6:-0.986138 7:0.336305 8:-0.85187 9:-0.99963 10:-0.00758225 11:0.445566 12:-0.999649 13:0.622241 14:-0.999659 15:-0.981647 16:-0.956944 17:-1 18:-1 19:-0.962487 20:-0.897987 21:-0.979199 22:-0.957524 23:-0.956015 24:-0.950225 25:-1 26:-1 27:-0.955643 28:-0.938724 29:-0.953383 30:-0.902165 31:-1 32:-1 33:-0.978797 34:-0.973804 35:-0.976246 36:-1 37:-0.972104 38:-0.965733 39:-0.973134 40:-1 41:-0.973141 42:-0.966497 43:-1 44:-0.977482 45:-0.99241 46:-0.989648 47:-0.982517 48:-0.990868 49:-0.995294 50:-1 51:-0.99505 52:-0.99187 53:-0.952703 54:-0.984095 55:-0.989529 56:-0.987448 57:-0.94822 58:-0.987768 59:-0.951389 60:-0.969072 61:-0.958333 62:-0.973684 63:-1 64:-0.846154 65:-0.952381 66:-0.804878 67:-0.944444 68:-1 69:-0.939394 70:-0.345726 71:-0.443921 
8 1:-0.986429 2:-0.942333 3:-0.98076 4:0.44591 5:-0.0342229 6:-0.952484 7:0.39667 8:-0.997363 9:-0.999283 10:-0.0226773 11:0.448527 12:-0.999497 13:0.622284 14:-0.999504 15:-0.938525 16:-0.876378 17:-1 18:-1 19:-0.961446 20:-0.942715 21:-1 22:-1 23:-0.991397 24:-0.800832 25:-1 26:-1 27:-0.967502 28:-0.861658 29:-0.954273 30:-0.881961 31:-0.991248 32:-0.980813 33:-0.971663 34:-0.981762 35:-0.939839 36:-1 37:-0.931116 38:-1 39:-0.929443 40:-1 41:-0.928592 42:-0.910898 43:-0.907724 44:-0.939767 45:-0.97723 46:-1 47:-1 48:-1 49:-0.943529 50:-1 51:-1 52:-1 53:-0.891892 54:-1 55:-1 56:-1 57:-0.993528 58:-1 59:-1 60:-1 61:-0.958333 62:-1 63:-1 64:-1 65:-1 66:-1 67:-1 68:-1 69:-1 70:-0.94013 71:-0.971722 
8 1:-0.988691 2:-0.901156 3:-0.880456 4:0.474537 5:-0.0125907 6:-0.999265 7:0.385777 8:-0.993636 9:-0.999372 10:-0.00644503 11:0.443534 12:-0.998939 13:0.622472 14:-0.99899 15:-0.971017 16:-0.836476 17:-0.992099 18:-0.98473 19:-0.991153 20:-0.922659 21:-1 22:-1 23:-0.979632 24:-0.870522 25:-1 26:-1 27:-1 28:-1 29:-0.978273 30:-0.750645 31:-1 32:-1 33:-0.971622 34:-0.848333 35:-0.897141 36:-0.842126 37:-0.88305 38:-1 39:-0.884488 40:-0.88151 41:-1 42:-0.848601 43:-0.83922 44:-0.896958 45:-0.99494 46:-0.991718 47:-0.993007 48:-0.981735 49:-0.985882 50:-0.984496 51:-0.990099 52:-0.99187 53:-0.972973 54:-0.988072 55:-0.997382 56:-0.991632 57:-0.987055 58:-1 59:-1 60:-1 61:-1 62:-1 63:-1 64:-0.974359 65:-0.904762 66:-0.95122 67:-1 68:-1 69:-1 70:0.23384 71:-0.244094 
8 1:-0.968335 2:-0.967033 3:-0.992582 4:0.467087 5:-0.010002 6:-0.970233 7:0.325461 8:-0.898593 9:-0.998418 10:-0.0070927 11:0.444961 12:-0.999305 13:0.622583 14:-0.999264 15:-0.915614 16:-0.873102 17:-0.950438 18:-0.940903 19:-0.896742 20:-0.861253 21:-0.967511 22:-0.950786 23:-0.963358 24:-0.928368 25:-0.922942 26:-0.874336 27:-1 28:-1 29:-0.960615 30:-0.969744 31:-0.953504 32:-0.984762 33:-0.955442 34:-0.960774 35:-0.965917 36:-0.949334 37:-0.959676 38:-0.948965 39:-0.959637 40:-0.96078 41:-1 42:-0.948182 43:-0.947049 44:-0.965642 45:-0.99747 46:-0.993789 47:-0.996503 48:-0.972603 49:-0.971765 50:-0.949612 51:-0.945545 52:-0.943089 53:-0.810811 54:-0.956262 55:-0.973822 56:-0.958159 57:-0.993528 58:-0.987768 59:-0.993056 60:-0.979381 61:-1 62:-1 63:-1 64:-1 65:-1 66:-1 67:-1 68:-1 69:-1 70:-0.403773 71:-0.292523 
8 1:-0.996607 2:-0.772692 3:-0.753727 4:0.362218 5:-0.143662 6:-0.966544 7:0.450791 8:-0.905075 9:-0.999361 10:-0.00734673 11:0.445258 12:-0.999861 13:0.622377 14:-0.999843 15:-0.837871 16:-0.510982 17:-1 18:-1 19:-1 20:-1 21:-1 22:-1 23:-1 24:-1 25:-1 26:-1 27:-1 28:-1 29:-1 30:-1 31:-1 32:-1 33:-0.886988 34:-0.771968 35:-0.76408 36:-1 37:-1 38:-1 39:-1 40:-1 41:-1 42:-1 43:-1 44:-0.756562 45:-0.998735 46:-0.99793 47:-1 48:-1 49:-1 50:-0.996124 51:-1 52:-1 53:-1 54:-1 55:-0.997382 56:-0.995816 57:-1 58:-0.993884 59:-0.986111 60:-0.958763 61:-1 62:-0.986842 63:-0.979381 64:-1 65:-1 66:-1 67:-1 68:-1 69:-1 70:-0.543551 71:-0.429055 
8 1:-0.983036 2:-0.944169 3:-0.999133 4:0.47778 5:-0.0307511 6:-0.937686 7:0.390681 8:-0.998271 9:-0.998393 10:-0.00745271 11:0.445156 12:-0.999651 13:0.62225 14:-0.999595 15:-0.987472 16:-0.984138 17:-1 18:-1 19:-0.872891 20:-0.882882 21:-1 22:-1 23:-0.876347 24:-0.97703 25:-0.905245 26:-0.905312 27:-1 28:-1 29:-0.880145 30:-0.790926 31:-1 32:-1 33:-0.921341 34:-0.965422 35:-0.940337 36:-1 37:-0.93362 38:-1 39:-0.932606 40:-0.933648 41:-1 42:-0.911227 43:-1 44:-0.940032 45:-0.99747 46:-0.99793 47:-1 48:-1 49:-1 50:-0.996124 51:-0.99505 52:-0.98374 53:-1 54:-0.980119 55:-0.997382 56:-0.979079 57:-0.954693 58:-0.957187 59:-0.993056 60:-0.989691 61:-0.986111 62:-0.960526 63:-0.938144 64:-0.897436 65:-0.880952 66:-0.560976 67:-0.888889 68:-0.909091 69:-1 70:-0.592869 71:-0.448496 
8 1:-0.992366 2:-0.912235 3:-0.985101 4:0.439048 5:-0.0013459 6:-0.91728 7:0.284021 8:-0.899393 9:-0.9997 10:-0.00730635 11:0.445186 12:-0.999901 13:0.622275 14:-0.999889 15:-0.964821 16:-0.957671 17:-1 18:-1 19:-1 20:-1 21:-1 22:-1 23:-0.922839 24:-0.853584 25:-0.981886 26:-0.95262 27:-1 28:-1 29:-1 30:-1 31:-1 32:-1 33:-0.918953 34:-0.944162 35:-0.911062 36:-1 37:-1 38:-1 39:-0.89678 40:-0.895104 41:-1 42:-1 43:-1 44:-0.910066 45:-0.99747 46:-0.995859 47:-0.996503 48:-1 49:-1 50:-0.996124 51:-1 52:-1 53:-1 54:-0.996024 55:-1 56:-0.991632 57:-0.980583 58:-1 59:-0.986111 60:-0.979381 61:-1 62:-0.947368 63:-0.938144 64:-0.923077 65:-0.928571 66:-1 67:-1 68:-1 69:-1 70:-0.31859 71:-0.254517 
3.022586988555131 1:-0.837716 2:-0.989005 3:-0.985317 4:0.484502 5:-0.0398257 6:-0.999659 7:0.389993 8:-0.986077 9:-0.980509 10:-0.00800618 11:0.44258 12:-0.994333 13:0.622644 14:-0.993977 15:-0.903091 16:-0.829649 17:-0.923884 18:-0.789499 19:-0.92999 20:-0.722831 21:-0.911799 22:-0.650297 23:-0.936178 24:-0.514282 25:-0.924249 26:-0.351439 27:-0.927375 28:-0.723685 29:-0.953117 30:-0.536341 31:-0.97286 32:-0.78714 33:-0.930243 34:-0.900007 35:-0.987601 36:-0.980905 37:-0.985304 38:-0.981477 39:-0.985144 40:-0.985381 41:-0.984738 42:-0.980558 43:-0.980149 44:-0.986668 45:-0.98988 46:-0.993789 47:-0.98951 48:-0.968037 49:-0.962353 50:-0.918605 51:-0.925743 52:-0.837398 53:-0.831081 54:-0.836978 55:-0.840314 56:-0.669456 57:-0.779935 58:-0.828746 59:-0.6875 60:-0.649485 61:-0.486111 62:-0.671053 63:-0.443299 64:-0.333333 65:-0.452381 66:-0.756098 67:-1 68:-0.909091 69:-1 70:-0.38802 71:-0.162547 
8 1:-0.984167 2:-0.949004 3:-0.985578 4:0.452977 5:-0.0303371 6:-0.956231 7:0.387363 8:-0.999337 9:-0.999102 10:-0.00715158 11:0.445445 12:-0.999458 13:0.622201 14:-0.999446 15:-0.873712 16:-0.927316 17:-1 18:-1 19:-0.924699 20:-0.877447 21:-1 22:-1 23:-0.95669 24:-0.980066 25:-1 26:-1 27:-0.946077 28:-0.90354 29:-0.959377 30:-0.883459 31:-0.947871 32:-0.911764 33:-0.946658 34:-0.918801 35:-0.945871 36:-1 37:-0.938093 38:-1 39:-0.939708 40:-1 41:-0.938888 42:-0.921837 43:-0.920278 44:-0.94753 45:-0.99747 46:-1 47:-1 48:-1 49:-1 50:-1 51:-0.821782 52:-1 53:-1 54:-1 55:-1 56:-1 57:-0.883495 58:-1 59:-1 60:-1 61:-1 62:-1 63:-1 64:-1 65:-1 66:-1 67:-1 68:-1 69:-0.878788 70:-0.963816 71:-0.968412 
7.009758042960784 1:-0.947413 2:-0.970108 3:-0.983827 4:0.461631 5:-0.0173584 6:-0.977839 7:0.364462 8:-0.977883 9:-0.985015 10:-0.00379375 11:0.446412 12:-0.997027 13:0.622186 14:-0.996338 15:-0.939051 16:-0.721551 17:-0.90557 18:-0.734402 19:-0.875183 20:-0.837932 21:-0.878112 22:-0.861047 23:-0.865262 24:-0.786606 25:-0.809426 26:-0.64782 27:-0.95104 28:-0.928322 29:-0.788874 30:-0.734417 31:-0.980613 32:-0.902992 33:-0.820551 34:-0.79187 35:-0.964352 36:-0.947152 37:-0.958318 38:-0.945011 39:-0.962886 40:-0.961137 41:-0.964126 42:-0.948651 43:-0.952387 44:-0.963996 45:-0.97723 46:-0.991718 47:-0.982517 48:-0.958904 49:-0.962353 50:-0.934109 51:-0.89604 52:-0.829268 53:-0.864865 54:-0.952286 55:-0.973822 56:-0.966527 57:-0.97411 58:-0.963303 59:-0.972222 60:-0.948454 61:-0.902778 62:-0.986842 63:-1 64:-0.923077 65:-1 66:-1 67:-0.888889 68:-0.818182 69:-0.939394 70:-0.326016 71:-0.442978 
8 1:-0.989822 2:-0.909041 3:-0.889742 4:0.46835 5:0.0698318 6:-0.998268 7:0.36888 8:-0.838092 9:-0.999558 10:-0.00720878 11:0.445059 12:-0.999898 13:0.622274 14:-0.999897 15:-1 16:-1 17:-1 18:-1 19:-1 20:-1 21:-1 22:-1 23:-0.930251 24:-0.808001 25:-1 26:-1 27:-1 28:-1 29:-1 30:-1 31:-1 32:-1 33:-0.94997 34:-0.849007 35:-0.905665 36:-1 37:-1 38:-1 39:-0.890697 40:-1 41:-1 42:-1 43:-1 44:-0.903889 45:-0.99494 46:-0.993789 47:-0.993007 48:-0.995434 49:-0.985882 50:-1 51:-0.990099 52:-0.97561 53:-0.97973 54:-1 55:-0.989529 56:-1 57:-0.987055 58:-0.993884 59:-0.993056 60:-0.979381 61:-0.986111 62:-1 63:-0.958763 64:-0.974359 65:-0.97619 66:-1 67:-1 68:-0.909091 69:-0.939394 70:-0.0539482 71:-0.328701 
0.637536290023039 1:-0.534917 2:-0.995605 3:-0.996565 4:0.483346 5:-0.0311539 6:-0.997296 7:0.388739 8:-0.997916 9:-0.96816 10:-0.006694 11:0.431122 12:-0.988248 13:0.618472 14:-0.98781 15:-0.904467 16:-0.865059 17:-0.897292 18:-0.882955 19:-0.904892 20:-0.883558 21:-0.906114 22:-0.883057 23:-0.914596 24:-0.705351 25:-0.887078 26:-0.572503 27:-0.874602 28:-0.796857 29:-0.880235 30:-0.727649 31:-0.858364 32:-0.905797 33:-0.924558 34:-0.854534 35:-0.993818 36:-0.991095 37:-0.993301 38:-0.991754 39:-0.994039 40:-0.993998 41:-0.993938 42:-0.992178 43:-0.991844 44:-0.994112 45:-0.838077 46:-0.863354 47:-0.776224 48:-0.621005 49:-0.590588 50:-0.709302 51:-0.712871 52:-0.154472 53:0.0945946 54:-0.129225 55:-0.589005 56:-0.702929 57:-0.79288 58:-0.730887 59:-0.590278 60:-0.42268 61:-0.486111 62:-0.263158 63:-0.113402 64:-0.435897 65:-0.738095 66:-0.609756 67:-0.777778 68:-1 69:-0.939394 70:-0.102664 71:-0.238831 
0.01223752022455776 1:-0.939214 2:-0.992498 3:-0.993277 4:0.480223 5:-0.0366247 6:-0.995753 7:0.395322 8:-0.989146 9:-0.997142 10:-0.00625661 11:0.442499 12:-0.997424 13:0.623411 14:-0.997465 15:-0.993256 16:-0.957332 17:-0.988662 18:-0.93229 19:-0.97063 20:-0.861813 21:-0.938243 22:-0.955657 23:-0.927758 24:-0.934022 25:-0.965432 26:-0.975309 27:-0.959288 28:-0.944653 29:-0.976919 30:-0.865789 31:-0.963283 32:-0.922106 33:-0.978324 34:-0.875323 35:-0.989396 36:-0.984233 37:-0.988288 38:-0.98661 39:-0.98977 40:-0.989223 41:-0.989705 42:-0.98616 43:-0.985347 44:-0.988838 45:-0.913978 46:-0.971014 47:-0.98951 48:-0.954338 49:-0.981176 50:-0.992248 51:-0.945545 52:-0.97561 53:-0.97973 54:-0.972167 55:-0.989529 56:-0.987448 57:-0.980583 58:-0.963303 59:-0.972222 60:-0.876289 61:-0.902778 62:-0.894737 63:-0.690722 64:-0.846154 65:-0.785714 66:-0.560976 67:-0.666667 68:-1 69:-1 70:-0.134834 71:-0.523794 
0.5103277018498347 1:-0.97823 2:-0.958696 3:-0.997824 4:0.473855 5:-0.0323019 6:-0.954049 7:0.400254 8:-0.995048 9:-0.998074 10:-0.00718775 11:0.446528 12:-0.999614 13:0.62622 14:-0.999565 15:-0.875992 16:-0.886851 17:-1 18:-1 19:-1 20:-1 21:-0.882426 22:-0.86011 23:-1 24:-1 25:-1 26:-1 27:-0.909558 28:-0.919357 29:-1 30:-1 31:-1 32:-1 33:-0.955148 34:-0.962371 35:-0.956672 36:-1 37:-1 38:-0.936196 39:-1 40:-1 41:-0.94549 42:-1 43:-1 44:-0.950444 45:-0.998735 46:-0.99793 47:-0.996503 48:-0.986301 49:-1 50:-0.984496 51:-0.990099 52:-0.98374 53:-1 54:-0.996024 55:-0.997382 56:-0.974895 57:-0.97411 58:-0.963303 59:-0.979167 60:-0.927835 61:-0.805556 62:-0.934211 63:-0.835052 64:-1 65:-0.97619 66:-0.804878 67:-0.944444 68:-0.636364 69:-1 70:-0.537939 71:-0.383756 
8 1:-0.998304 2:-0.704417 3:-0.667217 4:0.361314 5:-0.0548253 6:-0.974909 7:0.397973 8:-0.99685 9:-0.999932 10:-0.00721887 11:0.445161 12:-0.999866 13:0.622341 14:-0.999871 15:-0.994883 16:-0.964958 17:-1 18:-1 19:-1 20:-1 21:-1 22:-1 23:-0.993452 24:-0.954931 25:-1 26:-1 27:-1 28:-1 29:-1 30:-1 31:-1 32:-1 33:-0.973977 34:-0.871789 35:-0.704115 36:-1 37:-1 38:-1 39:-0.648204 40:-1 41:-1 42:-1 43:-1 44:-0.691564 45:-0.998735 46:-1 47:-1 48:-1 49:-1 50:-1 51:-0.990099 52:-0.99187 53:-1 54:-0.996024 55:-1 56:-1 57:-1 58:-1 59:-1 60:-1 61:-0.986111 62:-0.986842 63:-0.979381 64:-1 65:-1 66:-1 67:-1 68:-1 69:-1 70:-0.412742 71:-0.509421 
8 1:-0.996607 2:-0.883389 3:-0.997221 4:0.461958 5:-0.0233876 6:-0.874674 7:0.314711 8:-0.966957 9:-0.999928 10:-0.00729121 11:0.445151 12:-0.999935 13:0.622255 14:-0.999936 15:-0.993129 16:-0.976285 17:-1 18:-1 19:-1 20:-1 21:-1 22:-1 23:-1 24:-1 25:-0.959421 26:-0.970176 27:-1 28:-1 29:-1 30:-1 31:-1 32:-1 33:-0.950761 34:-0.968986 35:-0.880011 36:-1 37:-1 38:-1 39:-1 40:-0.861017 41:-1 42:-1 43:-1 44:-0.883186 45:-0.998735 46:-1 47:-0.993007 48:-1 49:-1 50:-0.98062 51:-0.99505 52:-1 53:-1 54:-1 55:-1 56:-1 57:-1 58:-1 59:-0.993056 60:-1 61:-1 62:-1 63:-0.979381 64:-1 65:-1 66:-0.902439 67:-0.944444 68:-1 69:-1 70:0.0531606 71:-0.326995 
0.3756481933233783 1:-0.836585 2:-0.993955 3:-0.999309 4:0.484781 5:-0.030774 6:-0.99225 7:0.389283 8:-0.997512 9:-0.988614 10:-0.00815422 11:0.444268 12:-0.993479 13:0.625192 14:-0.993546 15:-0.938441 16:-0.900376 17:-0.938163 18:-0.890655 19:-0.930707 20:-0.887171 21:-0.912796 22:-0.850009 23:-0.896951 24:-0.839128 25:-0.89956 26:-0.659177 27:-0.899811 28:-0.87498 29:-0.893615 30:-0.765987 31:-0.897465 32:-0.858288 33:-0.896729 34:-0.88342 35:-0.991752 36:-0.987554 37:-0.990435 38:-0.987737 39:-0.990867 40:-0.991716 41:-0.991669 42:-0.989294 43:-0.988752 44:-0.991861 45:-0.973435 46:-0.993789 47:-0.979021 48:-0.981735 49:-0.952941 50:-0.949612 51:-0.955446 52:-0.837398 53:-0.797297 54:-0.900596 55:-0.908377 56:-0.832636 57:-0.68932 58:-0.7737 59:-0.638889 60:-0.43299 61:0.0277778 62:-0.578947 63:-0.505155 64:-0.717949 65:-0.785714 66:-0.707317 67:-0.388889 68:-0.636364 69:-0.939394 70:-0.282256 71:-0.0785719 
8 1:-0.985016 2:-0.95045 3:-0.988705 4:0.518266 5:-0.0367301 6:-0.955323 7:0.369197 8:-0.993448 9:-0.999659 10:-0.00769664 11:0.444546 12:-0.999425 13:0.622058 14:-0.999451 15:-0.980033 16:-0.95244 17:-0.977274 18:-0.940213 19:-1 20:-1 21:-0.953065 22:-0.95494 23:-0.970401 24:-0.860371 25:-1 26:-1 27:-0.925956 28:-0.955063 29:-1 30:-1 31:-0.990112 32:-0.954779 33:-0.972553 34:-0.988514 35:-0.949714 36:-0.922543 37:-1 38:-0.923834 39:-0.940394 40:-1 41:-0.941278 42:-1 43:-0.92213 44:-0.947602 45:-0.98988 46:-0.962733 47:-1 48:-0.972603 49:-1 50:-0.968992 51:-1 52:-0.96748 53:-0.993243 54:-1 55:-0.984293 56:-1 57:-1 58:-1 59:-0.986111 60:-1 61:-0.986111 62:-1 63:-1 64:-1 65:-1 66:-1 67:-1 68:-1 69:-0.939394 70:-0.857001 71:-0.912837 
1.005084527862147 1:-0.740175 2:-0.994851 3:-0.997742 4:0.482951 5:-0.029793 6:-0.995001 7:0.386188 8:-0.997972 9:-0.979699 10:-0.00939407 11:0.449257 12:-0.993925 13:0.625369 14:-0.99338 15:-0.955225 16:-0.825286 17:-0.962166 18:-0.834725 19:-0.9676 20:-0.83481 21:-0.938075 22:-0.920011 23:-0.871919 24:-0.724521 25:-0.882789 26:-0.661099 27:-0.889058 28:-0.832957 29:-0.887893 30:-0.726447 31:-0.898914 32:-0.907839 33:-0.889433 34:-0.913663 35:-0.992192 36:-0.988964 37:-0.991579 38:-0.989617 39:-0.992541 40:-0.992913 41:-0.992789 42:-0.990535 43:-0.990367 44:-0.993333 45:-0.922834 46:-0.933747 47:-0.895105 48:-0.835616 49:-0.750588 50:-0.848837 51:-0.811881 52:-0.788618 53:-0.702703 54:-0.622266 55:-0.782723 56:-0.728033 57:-0.79288 58:-0.896024 59:-0.888889 60:-0.505155 61:-0.583333 62:-0.723684 63:-0.216495 64:-0.512821 65:-0.380952 66:0.95122 67:-0.111111 68:-0.0909091 69:-0.636364 70:-0.0233628 71:-0.198646 
0.004022986045228411 1:-0.992649 2:-0.920502 3:-0.911736 4:0.448011 5:-0.03218 6:-0.990733 7:0.388711 8:-0.998642 9:-0.999735 10:-0.00731981 11:0.445204 12:-0.999659 13:0.622507 14:-0.999676 15:-0.989888 16:-0.973576 17:-0.933465 18:-0.849271 19:-1 20:-1 21:-0.945511 22:-0.89791 23:-1 24:-1 25:-0.96178 26:-0.912729 27:-1 28:-1 29:-0.958914 30:-0.864292 31:-1 32:-1 33:-0.990987 34:-0.992243 35:-0.918722 36:-0.874781 37:-1 38:-0.87733 39:-1 40:-0.901983 41:-1 42:-0.87141 43:-1 44:-0.915034 45:-0.99747 46:-0.995859 47:-1 48:-0.995434 49:-0.995294 50:-0.992248 51:-1 52:-0.97561 53:-0.97973 54:-1 55:-0.989529 56:-0.995816 57:-0.987055 58:-0.987768 59:-1 60:-0.989691 61:-0.986111 62:-0.973684 63:-0.979381 64:-1 65:-1 66:-1 67:-1 68:-1 69:-1 70:-0.283915 71:-0.420844 
8 1:-0.995759 2:-0.91601 3:-0.915721 4:0.541209 5:-0.0444751 6:-0.982039 7:0.378203 8:-0.992633 9:-0.99969 10:-0.00727944 11:0.445119 12:-0.9999 13:0.622308 14:-0.999904 15:-0.964726 16:-0.835624 17:-1 18:-1 19:-1 20:-1 21:-0.96305 22:-0.873763 23:-1 24:-1 25:-1 26:-1 27:-0.972519 28:-0.917949 29:-1 30:-1 31:-1 32:-1 33:-1 34:-1 35:-0.908974 36:-1 37:-1 38:-0.870354 39:-1 40:-1 41:-0.898574 42:-1 43:-1 44:-0.909129 45:-0.998735 46:-1 47:-0.993007 48:-1 49:-1 50:-0.996124 51:-1 52:-1 53:-0.993243 54:-1 55:-0.997382 56:-0.995816 57:-0.993528 58:-0.981651 59:-1 60:-1 61:-0.986111 62:-1 63:-1 64:-0.974359 65:-0.97619 66:-1 67:-0.888889 68:-0.909091 69:-1 70:-0.530256 71:-0.282621 
7.516796826648975 1:-0.977665 2:-0.973933 3:-0.980267 4:0.510252 5:-0.0259912 6:-0.986168 7:0.39367 8:-0.996631 9:-0.998201 10:-0.00718801 11:0.445989 12:-0.999524 13:0.622248 14:-0.99947 15:-0.960053 16:-0.782925 17:-1 18:-1 19:-0.945892 20:-0.681807 21:-1 22:-1 23:-1 24:-1 25:-0.950558 26:-0.671153 27:-1 28:-1 29:-0.937691 30:-0.66997 31:-1 32:-1 33:-0.96306 34:-0.921995 35:-0.969955 36:-1 37:-0.965602 38:-1 39:-1 40:-0.962889 41:-1 42:-0.956812 43:-1 44:-0.972107 45:-0.983555 46:-0.977226 47:-0.979021 48:-0.968037 49:-0.957647 50:-0.992248 51:-0.990099 52:-0.99187 53:-0.993243 54:-0.984095 55:-0.994764 56:-0.987448 57:-0.980583 58:-0.993884 59:-0.993056 60:-0.969072 61:-0.958333 62:-0.973684 63:-1 64:-1 65:-0.928571 66:-1 67:-0.777778 68:-1 69:-1 70:-0.402613 71:-0.674501 
8 1:-0.998869 2:-0.852884 3:-0.825836 4:0.501224 5:-0.113004 6:-0.999449 7:0.380805 8:-0.931573 9:-0.999984 10:-0.00816768 11:0.445157 12:-0.999982 13:0.622276 14:-0.999982 15:-0.971634 16:-0.953438 17:-1 18:-1 19:-1 20:-1 21:-1 22:-1 23:-1 24:-1 25:-1 26:-1 27:-1 28:-1 29:-1 30:-1 31:-1 32:-1 33:-0.988987 34:-0.950019 35:-0.850914 36:-1 37:-1 38:-1 39:-1 40:-1 41:-1 42:-1 43:-1 44:-0.852865 45:-0.996205 46:-1 47:-1 48:-1 49:-1 50:-1 51:-1 52:-1 53:-1 54:-0.996024 55:-1 56:-1 57:-0.993528 58:-1 59:-0.993056 60:-1 61:-1 62:-1 63:-1 64:-1 65:-1 66:-1 67:-1 68:-1 69:-1 70:-0.565997 71:-0.00792408 
0.1448744889373996 1:-0.8838 2:-0.987997 3:-0.989658 4:0.477134 5:-0.0231801 6:-0.994414 7:0.379644 8:-0.985642 9:-0.987944 10:-0.000893503 11:0.442849 12:-0.99382 13:0.662314 14:-0.994021 15:-0.851683 16:-0.875166 17:-0.880792 18:-0.894993 19:-0.897067 20:-0.892848 21:-0.955575 22:-0.91894 23:-0.919587 24:-0.758712 25:-0.949077 26:-0.68183 27:-0.890373 28:-0.728522 29:-0.920783 30:-0.454035 31:-0.960177 32:-0.817433 33:-0.94902 34:-0.905486 35:-0.986028 36:-0.97886 37:-0.984924 38:-0.980553 39:-0.984406 40:-0.984063 41:-0.983756 42:-0.97845 43:-0.978085 44:-0.984638 45:-0.73814 46:-0.993789 47:-0.982517 48:-0.977169 49:-0.981176 50:-0.972868 51:-0.915842 52:-0.95122 53:-0.959459 54:-0.988072 55:-0.981675 56:-0.949791 57:-0.941748 58:-0.889908 59:-0.888889 60:-0.85567 61:-0.902778 62:-0.934211 63:-0.608247 64:-0.589744 65:-0.857143 66:-0.170732 67:-0.833333 68:-0.909091 69:-1 70:-0.0056841 71:-0.557653 
8 1:-0.992932 2:-0.930367 3:-0.915797 4:0.494997 5:-0.0985041 6:-0.999658 7:0.381283 8:-0.902992 9:-0.999747 10:-0.00726934 11:0.445116 12:-0.99983 13:0.622278 14:-0.999832 15:-0.942737 16:-0.855661 17:-1 18:-1 19:-1 20:-1 21:-0.940271 22:-0.901029 23:-1 24:-1 25:-1 26:-1 27:-0.973577 28:-0.926787 29:-1 30:-1 31:-1 32:-1 33:-0.978301 34:-0.957032 35:-0.928363 36:-1 37:-1 38:-0.892575 39:-1 40:-1 41:-0.915075 42:-1 43:-1 44:-0.928567 45:-0.993675 46:-0.993789 47:-0.996503 48:-1 49:-0.995294 50:-0.996124 51:-1 52:-0.97561 53:-0.993243 54:-0.988072 55:-0.997382 56:-0.995816 57:-1 58:-1 59:-0.993056 60:-0.989691 61:-1 62:-0.986842 63:-0.979381 64:-0.974359 65:-1 66:-1 67:-0.944444 68:-0.909091 69:-1 70:0.0255876 71:-0.38114 
2.623119702415243 1:-0.977099 2:-0.973908 3:-0.980148 4:0.510078 5:-0.0258786 6:-0.986443 7:0.39374 8:-0.996303 9:-0.998233 10:-0.00730046 11:0.445258 12:-0.9994 13:0.622356 14:-0.999364 15:-0.969574 16:-0.766359 17:-1 18:-1 19:-0.944069 20:-0.684294 21:-1 22:-1 23:-1 24:-1 25:-0.940087 26:-0.663416 27:-1 28:-1 29:-0.939201 30:-0.721894 31:-1 32:-1 33:-0.962498 34:-0.933279 35:-0.969655 36:-1 37:-0.965524 38:-1 39:-1 40:-0.962572 41:-1 42:-0.957458 43:-1 44:-0.972613 45:-0.98735 46:-0.966874 47:-0.986014 48:-0.977169 49:-0.976471 50:-0.98062 51:-0.980198 52:-0.97561 53:-0.966216 54:-0.984095 55:-0.989529 56:-0.979079 57:-0.993528 58:-1 59:-0.993056 60:-0.979381 61:-0.986111 62:-0.986842 63:-1 64:-0.974359 65:-1 66:-1 67:-0.888889 68:-0.818182 69:-0.878788 70:-0.44874 71:-0.693609 
6.809382434154161 1:-0.919423 2:-0.989922 3:-0.993742 4:0.478444 5:-0.0393308 6:-0.992861 7:0.402378 8:-0.975957 9:-0.996572 10:-0.00685235 11:0.444237 12:-0.995964 13:0.62214 14:-0.996138 15:-0.968324 16:-0.877192 17:-0.973789 18:-0.955837 19:-0.966206 20:-0.937812 21:-0.94614 22:-0.834205 23:-0.934205 24:-0.948091 25:-0.926992 26:-0.893062 27:-0.977856 28:-0.968344 29:-0.905212 30:-0.790738 31:-0.965867 32:-0.86325 33:-0.940067 34:-0.927851 35:-0.988327 36:-0.983112 37:-0.987553 38:-0.983336 39:-0.986392 40:-0.986298 41:-0.985899 42:-0.981856 43:-0.981266 44:-0.986937 45:-0.891208 46:-0.987578 47:-0.951049 48:-0.958904 49:-0.924706 50:-0.914729 51:-0.920792 52:-0.918699 53:-0.966216 54:-0.928429 55:-0.95288 56:-0.953975 57:-0.87055 58:-0.944954 59:-0.930556 60:-0.948454 61:-0.902778 62:-0.973684 63:-0.979381 64:-1 65:-1 66:-0.95122 67:-1 68:-0.909091 69:-1 70:-0.211495 71:-0.544627 
5.615256549104124 1:-0.972858 2:-0.944577 3:-0.999765 4:0.488087 5:-0.0307342 6:-0.934432 7:0.344608 8:-0.971264 9:-0.995836 10:-0.00690471 11:0.444238 12:-0.998653 13:0.623154 14:-0.998654 15:-1 16:-1 17:-0.848496 18:-0.681528 19:-1 20:-1 21:-0.888591 22:-0.66622 23:-1 24:-1 25:-0.894562 26:-0.559142 27:-0.862214 28:-0.813082 29:-1 30:-1 31:-0.884189 32:-0.860432 33:-0.895007 34:-0.961058 35:-0.940743 36:-0.90514 37:-1 38:-0.904736 39:-1 40:-0.928682 41:-0.927079 42:-1 43:-0.911935 44:-0.943167 45:-0.99494 46:-0.954451 47:-0.951049 48:-0.958904 49:-0.967059 50:-0.972868 51:-0.965347 52:-0.95935 53:-0.97973 54:-0.980119 55:-0.994764 56:-0.991632 57:-0.961165 58:-0.987768 59:-1 60:-1 61:-0.986111 62:-0.986842 63:-1 64:-0.974359 65:-1 66:-1 67:-1 68:-1 69:-1 70:-0.292344 71:-0.591446 
7.76551133619888 1:-0.98756 2:-0.957471 3:-0.997681 4:0.473273 5:-0.0338283 6:-0.953644 7:0.410228 8:-0.989005 9:-0.999209 10:-0.00727271 11:0.445382 12:-0.999817 13:0.622491 14:-0.999814 15:-0.904145 16:-0.925361 17:-1 18:-1 19:-1 20:-1 21:-0.931928 22:-0.769574 23:-1 24:-1 25:-1 26:-1 27:-0.98019 28:-0.947403 29:-1 30:-1 31:-1 32:-1 33:-0.992056 34:-0.973618 35:-0.955617 36:-1 37:-1 38:-0.934209 39:-1 40:-1 41:-0.943995 42:-1 43:-1 44:-0.949215 45:-0.998735 46:-1 47:-1 48:-0.995434 49:-0.995294 50:-1 51:-1 52:-1 53:-1 54:-0.996024 55:-0.997382 56:-0.995816 57:-0.993528 58:-0.987768 59:-0.993056 60:-0.927835 61:-0.986111 62:-0.960526 63:-0.690722 64:-0.948718 65:-0.809524 66:-1 67:-1 68:-1 69:-1 70:-0.692214 71:-0.381125 
8 1:-0.984733 2:-0.942182 3:-0.983745 4:0.448042 5:-0.00254484 6:-0.949632 7:0.313427 8:-0.914102 9:-0.999039 10:-0.00719869 11:0.409004 12:-0.999725 13:0.630967 14:-0.999697 15:-0.934617 16:-0.915373 17:-1 18:-1 19:-1 20:-1 21:-0.879252 22:-0.91429 23:-1 24:-1 25:-1 26:-1 27:-0.884135 28:-0.957932 29:-1 30:-1 31:-1 32:-1 33:-0.966837 34:-0.948515 35:-0.941639 36:-1 37:-1 38:-0.907806 39:-1 40:-1 41:-0.929378 42:-1 43:-1 44:-0.936129 45:-0.998735 46:-1 47:-0.993007 48:-0.990868 49:-0.985882 50:-0.972868 51:-0.985149 52:-0.96748 53:-0.993243 54:-0.996024 55:-0.984293 56:-0.979079 57:-0.954693 58:-0.987768 59:-0.979167 60:-0.989691 61:-0.986111 62:-1 63:-0.958763 64:-0.974359 65:-0.928571 66:-0.95122 67:-1 68:-1 69:-1 70:-0.428246 71:-0.44805 
1.661160302739907 1:-0.942324 2:-0.956622 3:-0.999436 4:0.481804 5:-0.0299005 6:-0.950449 7:0.376228 8:-0.993398 9:-0.992627 10:-0.00784763 11:0.445682 12:-0.997359 13:0.626054 14:-0.997305 15:-0.862671 16:-0.583243 17:-0.87609 18:-0.643299 19:-0.975211 20:-0.984014 21:-0.934652 22:-0.905993 23:-1 24:-1 25:-0.894582 26:-0.755055 27:-0.903358 28:-0.912987 29:-1 30:-1 31:-0.90976 32:-0.88666 33:-0.929964 34:-0.968839 35:-0.951502 36:-0.924571 37:-0.947509 38:-0.932228 39:-1 40:-0.947538 41:-0.947623 42:-1 43:-0.931805 44:-0.952615 45:-0.99241 46:-0.973085 47:-0.975524 48:-0.936073 49:-0.943529 50:-0.914729 51:-0.925743 52:-0.926829 53:-0.97973 54:-0.944334 55:-0.981675 56:-0.949791 57:-0.980583 58:-0.944954 59:-0.958333 60:-0.917526 61:-0.930556 62:-0.934211 63:-0.896907 64:-0.871795 65:-0.904762 66:-0.658537 67:-0.722222 68:-0.454545 69:-0.757576 70:-0.214678 71:-0.398914 
6.731765336011315 1:-0.998869 2:-0.574109 3:-0.496151 4:0.477208 5:0.080678 6:-0.999909 7:0.385432 8:-0.95717 9:-0.999996 10:-0.00726135 11:0.445139 12:-0.999991 13:0.622239 14:-0.999992 15:-0.998892 16:-0.890574 17:-0.997844 18:-0.930239 19:-1 20:-1 21:-1 22:-1 23:-1 24:-1 25:-1 26:-1 27:-1 28:-1 29:-1 30:-1 31:-1 32:-1 33:-1 34:-1 35:-0.574757 36:-0.357539 37:-1 38:-1 39:-1 40:-1 41:-1 42:-1 43:-0.351942 44:-0.569972 45:-0.998735 46:-1 47:-1 48:-1 49:-1 50:-1 51:-1 52:-1 53:-1 54:-0.996024 55:-1 56:-1 57:-1 58:-1 59:-0.993056 60:-1 61:-1 62:-1 63:-0.979381 64:-1 65:-1 66:-0.95122 67:-1 68:-0.909091 69:-1 70:-0.51208 71:-0.340729 
8 1:-0.985581 2:-0.942597 3:-0.982524 4:0.446941 5:-0.00232795 6:-0.950513 7:0.316161 8:-0.917008 9:-0.998984 10:-0.00727944 11:0.445257 12:-0.999722 13:0.622136 14:-0.999719 15:-0.924685 16:-0.927701 17:-1 18:-1 19:-1 20:-1 21:-0.888814 22:-0.9535 23:-1 24:-1 25:-1 26:-1 27:-0.911318 28:-0.832877 29:-1 30:-1 31:-1 32:-1 33:-0.966294 34:-0.953247 35:-0.941203 36:-1 37:-1 38:-0.907248 39:-1 40:-1 41:-0.929586 42:-1 43:-1 44:-0.93606 45:-0.99747 46:-1 47:-0.996503 48:-0.981735 49:-0.990588 50:-0.976744 51:-0.990099 52:-0.934959 53:-0.972973 54:-0.996024 55:-0.994764 56:-0.991632 57:-0.993528 58:-0.981651 59:-0.972222 60:-0.989691 61:-0.958333 62:-0.960526 63:-1 64:-1 65:-0.97619 66:-0.902439 67:-0.944444 68:-1 69:-1 70:-0.499012 71:-0.577626 
0.5463202949347902 1:-0.809726 2:-0.989088 3:-0.986186 4:0.491334 5:-0.0367798 6:-0.999406 7:0.385981 8:-0.992717 9:-0.977438 10:-0.0153544 11:0.458664 12:-0.99143 13:0.61811 14:-0.990903 15:-0.957455 16:-0.817361 17:-0.926615 18:-0.798963 19:-0.949558 20:-0.796552 21:-0.937777 22:-0.77136 23:-0.921587 24:-0.489052 25:-0.930321 26:-0.310939 27:-0.943059 28:-0.70451 29:-0.943195 30:-0.465664 31:-0.965353 32:-0.762561 33:-0.933593 34:-0.835762 35:-0.987551 36:-0.981047 37:-0.985282 38:-0.980891 39:-0.985389 40:-0.985841 41:-0.986261 42:-0.981974 43:-0.981931 44:-0.986754 45:-0.965844 46:-0.987578 47:-0.951049 48:-0.958904 49:-0.967059 50:-0.957364 51:-0.930693 52:-0.894309 53:-0.905405 54:-0.924453 55:-0.937173 56:-0.83682 57:-0.799353 58:-0.675841 59:-0.402778 60:-0.216495 61:0.263889 62:-0.236842 63:-0.505155 64:-0.358974 65:-0.666667 66:-0.658537 67:-0.5 68:-0.727273 69:-0.939394 70:-0.309516 71:-0.107992 
5.013381922377599 1:-0.932429 2:-0.984638 3:-0.997572 4:0.47885 5:-0.0357929 6:-0.983235 7:0.409113 8:-0.976653 9:-0.992333 10:-0.00918378 11:0.446593 12:-0.998414 13:0.623428 14:-0.998185 15:-0.926758 16:-0.901298 17:-0.946954 18:-0.879204 19:-0.995273 20:-0.872367 21:-0.965161 22:-0.912387 23:-0.84993 24:-0.783548 25:-0.914173 26:-0.850159 27:-0.975612 28:-0.965695 29:-0.835213 30:-0.631715 31:-0.932908 32:-0.86452 33:-0.945521 34:-0.921369 35:-0.979941 36:-0.9705 37:-0.974913 38:-0.971722 39:-0.979864 40:-0.97933 41:-0.98027 42:-0.975107 43:-0.974037 44:-0.98271 45:-0.877293 46:-0.991718 47:-0.98951 48:-0.977169 49:-0.981176 50:-0.976744 51:-0.950495 52:-0.95122 53:-0.952703 54:-0.964215 55:-0.984293 56:-0.945607 57:-0.961165 58:-0.957187 59:-0.972222 60:-0.938144 61:-0.847222 62:-0.710526 63:-0.938144 64:-0.923077 65:-0.952381 66:-0.95122 67:-0.722222 68:-1 69:-0.939394 70:0.0270478 71:-0.479247 
8 1:-0.983319 2:-0.941803 3:-0.982246 4:0.446351 5:-0.00107005 6:-0.949861 7:0.313093 8:-0.911831 9:-0.99813 10:-0.0133861 11:0.415084 12:-0.999705 13:0.622207 14:-0.999636 15:-0.911926 16:-0.909827 17:-1 18:-1 19:-1 20:-1 21:-0.847202 22:-0.846781 23:-1 24:-1 25:-1 26:-1 27:-0.87921 28:-0.928853 29:-1 30:-1 31:-1 32:-1 33:-0.953928 34:-0.943424 35:-0.939036 36:-1 37:-1 38:-0.906503 39:-1 40:-1 41:-0.929014 42:-1 43:-1 44:-0.93633 45:-0.99747 46:-0.993789 47:-1 48:-1 49:-0.995294 50:-0.996124 51:-0.985149 52:-0.97561 53:-0.97973 54:-0.996024 55:-0.984293 56:-0.987448 57:-0.987055 58:-0.981651 59:-0.944444 60:-0.989691 61:-0.930556 62:-0.907895 63:-0.979381 64:-0.948718 65:-0.952381 66:-0.95122 67:-0.944444 68:-0.909091 69:-0.939394 70:-0.539453 71:-0.446042 
8 1:-0.995194 2:-0.900859 3:-0.922011 4:0.412379 5:0.0441553 6:-0.962067 7:0.309289 8:-0.873551 9:-0.999826 10:-0.00726135 11:0.445201 12:-0.999915 13:0.6223 14:-0.999916 15:-0.947765 16:-0.980859 17:-1 18:-1 19:-1 20:-1 21:-1 22:-1 23:-0.953959 24:-0.883058 25:-1 26:-1 27:-1 28:-1 29:-1 30:-1 31:-1 32:-1 33:-0.958973 34:-0.933973 35:-0.896865 36:-1 37:-1 38:-1 39:-0.883981 40:-1 41:-1 42:-1 43:-1 44:-0.897485 45:-0.993675 46:-1 47:-0.996503 48:-0.995434 49:-0.995294 50:-0.988372 51:-1 52:-1 53:-1 54:-1 55:-1 56:-0.995816 57:-1 58:-1 59:-1 60:-1 61:-1 62:-0.986842 63:-0.979381 64:-1 65:-0.97619 66:-0.95122 67:-0.944444 68:-1 69:-0.878788 70:0.275637 71:-0.21458 
8 1:-0.977947 2:-0.944281 3:-0.999322 4:0.479132 5:-0.0315026 6:-0.937971 7:0.402736 8:-0.994735 9:-0.997599 10:-0.00728112 11:0.445218 12:-0.999487 13:0.622317 14:-0.999418 15:-1 16:-1 17:-0.983137 18:-0.988681 19:-0.994377 20:-0.997113 21:-0.945313 22:-0.849875 23:-0.906275 24:-0.976602 25:-0.862433 26:-0.838643 27:-1 28:-1 29:-0.959304 30:-0.978518 31:-0.865636 32:-0.982679 33:-0.947908 34:-0.964456 35:-0.942671 36:-0.912765 37:-0.934958 38:-0.909595 39:-0.934661 40:-0.932099 41:-1 42:-0.913224 43:-0.911902 44:-0.943524 45:-0.99494 46:-1 47:-0.993007 48:-0.995434 49:-1 50:-0.996124 51:-0.99505 52:-0.96748 53:-0.986486 54:-0.976143 55:-0.992147 56:-0.983264 57:-0.961165 58:-0.987768 59:-0.986111 60:-0.989691 61:-0.986111 62:-0.973684 63:-0.917526 64:-0.769231 65:-0.666667 66:-0.804878 67:-0.722222 68:-0.909091 69:-0.939394 70:-0.543858 71:-0.453816 
0.1921541159658728 1:-0.778626 2:-0.99291 3:-0.990095 4:0.485123 5:-0.0240314 6:-0.999682 7:0.38618 8:-0.989866 9:-0.976821 10:-0.00870601 11:0.444491 12:-0.991555 13:0.602692 14:-0.991111 15:-0.893522 16:-0.825709 17:-0.895694 18:-0.814568 19:-0.924835 20:-0.779519 21:-0.932317 22:-0.763187 23:-0.956178 24:-0.684274 25:-0.961702 26:-0.508959 27:-0.921576 28:-0.772159 29:-0.930669 30:-0.468837 31:-0.94413 32:-0.734681 33:-0.956756 34:-0.734665 35:-0.991562 36:-0.986624 37:-0.99036 38:-0.987194 39:-0.990355 40:-0.99006 41:-0.990142 42:-0.986744 43:-0.986427 44:-0.990687 45:-0.973435 46:-0.99793 47:-0.986014 48:-0.977169 49:-0.981176 50:-0.94186 51:-0.930693 52:-0.902439 53:-0.824324 54:-0.860835 55:-0.78534 56:-0.48954 57:-0.365696 58:-0.59633 59:-0.784722 60:-0.268041 61:-0.402778 62:-0.328947 63:-0.484536 64:-0.435897 65:-0.738095 66:-0.219512 67:-0.722222 68:-0.636364 69:-0.939394 70:-0.395547 71:-0.131461 
8 1:-0.99378 2:-0.932139 3:-0.964048 4:0.43244 5:-0.0562811 6:-0.955694 7:0.431075 8:-0.965855 9:-0.999686 10:-0.00718859 11:0.444985 12:-0.999827 13:0.62233 14:-0.999831 15:-1 16:-1 17:-0.949556 18:-0.955996 19:-0.993896 20:-0.993582 21:-0.959185 22:-0.989941 23:-1 24:-1 25:-0.971786 26:-0.726538 27:-1 28:-1 29:-0.968505 30:-0.965508 31:-1 32:-1 33:-1 34:-1 35:-0.925592 36:-0.888533 37:-0.917472 38:-0.892048 39:-1 40:-0.918897 41:-1 42:-0.88983 43:-1 44:-0.924733 45:-0.993675 46:-1 47:-0.965035 48:-1 49:-1 50:-1 51:-1 52:-0.95935 53:-1 54:-1 55:-1 56:-1 57:-0.987055 58:-1 59:-1 60:-0.989691 61:-1 62:-0.986842 63:-1 64:-1 65:-1 66:-1 67:-1 68:-1 69:-1 70:-0.885143 71:-0.948526 
2.826901140589642 1:-0.981623 2:-0.96205 3:-0.983413 4:0.516938 5:-0.0334105 6:-0.97222 7:0.382274 8:-0.998587 9:-0.999582 10:-0.00734336 11:0.445146 12:-0.999161 13:0.623278 14:-0.999203 15:-0.97705 16:-0.95669 17:-0.977077 18:-0.974371 19:-0.975836 20:-0.931071 21:-1 22:-1 23:-0.991538 24:-0.819166 25:-0.990823 26:-0.829873 27:-1 28:-1 29:-0.957773 30:-0.83387 31:-0.953913 32:-0.944906 33:-0.99446 34:-0.957479 35:-0.958276 36:-0.938567 37:-0.953326 38:-1 39:-0.954387 40:-0.954489 41:-1 42:-0.940718 43:-0.940665 44:-0.960318 45:-0.99747 46:-1 47:-0.996503 48:-0.977169 49:-0.985882 50:-0.972868 51:-0.985149 52:-0.96748 53:-0.972973 54:-0.976143 55:-0.989529 56:-0.995816 57:-0.980583 58:-0.987768 59:-0.993056 60:-0.927835 61:-0.986111 62:-0.986842 63:-0.979381 64:-0.897436 65:-0.928571 66:-1 67:-0.888889 68:-0.818182 69:-1 70:-0.467257 71:-0.498183 
8 1:-0.972576 2:-0.943386 3:-0.979351 4:0.530706 5:-0.019642 6:-0.952339 7:0.412922 8:-0.988112 9:-0.994003 10:-0.00715831 11:0.444932 12:-0.999442 13:0.622119 14:-0.999111 15:-0.794322 16:-0.911132 17:-1 18:-1 19:-0.798733 20:-0.874056 21:-1 22:-1 23:-1 24:-1 25:-0.821799 26:-0.746012 27:-1 28:-1 29:-0.899316 30:-0.765622 31:-1 32:-1 33:-0.942035 34:-0.954513 35:-0.935887 36:-1 37:-0.9289 38:-1 39:-1 40:-0.930035 41:-1 42:-0.906666 43:-1 44:-0.935884 45:-0.993675 46:-0.981366 47:-0.933566 48:-0.954338 49:-0.967059 50:-0.992248 51:-0.965347 52:-0.95122 53:-0.966216 54:-0.964215 55:-0.994764 56:-0.974895 57:-0.987055 58:-0.987768 59:-0.979167 60:-0.989691 61:-0.958333 62:-0.986842 63:-1 64:-1 65:-1 66:-1 67:-1 68:-1 69:-1 70:-0.460499 71:-0.645452 
0.9893804930803939 1:-0.99378 2:-0.825402 3:-0.833018 4:0.597427 5:-0.0125586 6:-0.962012 7:0.400858 8:-0.995791 9:-0.999663 10:-0.00739383 11:0.445323 12:-0.999727 13:0.622132 14:-0.999729 15:-0.989043 16:-0.951168 17:-1 18:-1 19:-1 20:-1 21:-0.968157 22:-0.798502 23:-1 24:-1 25:-1 26:-1 27:-0.942906 28:-0.884372 29:-1 30:-1 31:-1 32:-1 33:-0.957521 34:-0.937045 35:-0.823177 36:-1 37:-1 38:-0.73065 39:-1 40:-1 41:-0.796515 42:-1 43:-1 44:-0.823915 45:-0.99747 46:-1 47:-0.996503 48:-1 49:-0.995294 50:-0.992248 51:-1 52:-0.99187 53:-0.972973 54:-1 55:-1 56:-0.991632 57:-0.993528 58:-1 59:-1 60:-1 61:-0.972222 62:-1 63:-0.979381 64:-0.948718 65:-0.97619 66:-1 67:-1 68:-0.727273 69:-0.939394 70:0.111342 71:0.178573 
5.29582565162109 1:-0.980492 2:-0.943834 3:-0.999159 4:0.477644 5:-0.0312482 6:-0.934857 7:0.39762 8:-0.994478 9:-0.99763 10:-0.00714485 11:0.432847 12:-0.99961 13:0.63032 14:-0.999568 15:-0.799083 16:-0.657569 17:-1 18:-1 19:-1 20:-1 21:-0.851115 22:-0.756635 23:-1 24:-1 25:-1 26:-1 27:-0.886967 28:-0.944467 29:-1 30:-1 31:-1 32:-1 33:-0.942375 34:-0.920302 35:-0.939947 36:-1 37:-1 38:-0.908638 39:-1 40:-1 41:-0.928651 42:-1 43:-1 44:-0.93628 45:-0.99747 46:-1 47:-0.982517 48:-0.995434 49:-0.995294 50:-0.988372 51:-0.965347 52:-0.95935 53:-0.972973 54:-0.972167 55:-0.992147 56:-0.970711 57:-0.980583 58:-0.981651 59:-0.930556 60:-0.979381 61:-1 62:-0.894737 63:-1 64:-1 65:-1 66:-1 67:-1 68:-1 69:-1 70:-0.55045 71:-0.501101 
2.917836076599539 1:-0.996042 2:-0.618728 3:-0.547691 4:0.548822 5:-0.119297 6:-0.99563 7:0.374759 8:-0.967022 9:-0.999593 10:-0.00724243 11:0.44537 12:-0.999815 13:0.6223 14:-0.999813 15:-0.948053 16:-0.851459 17:-1 18:-1 19:-1 20:-1 21:-1 22:-1 23:-0.996885 24:-0.872546 25:-0.96593 26:-0.507199 27:-1 28:-1 29:-1 30:-1 31:-1 32:-1 33:-0.991448 34:-0.951122 35:-0.61615 36:-1 37:-1 38:-1 39:-0.553047 40:-0.547169 41:-1 42:-1 43:-1 44:-0.613828 45:-0.998735 46:-1 47:-1 48:-1 49:-1 50:-1 51:-1 52:-1 53:-1 54:-0.996024 55:-1 56:-0.995816 57:-0.980583 58:-1 59:-1 60:-1 61:-0.986111 62:-0.986842 63:-1 64:-0.974359 65:-0.97619 66:-0.853659 67:-0.833333 68:-1 69:-1 70:-0.690091 71:-0.571922 
6.79508800625814 1:-0.979078 2:-0.972329 3:-0.979782 4:0.512045 5:-0.0246124 6:-0.984329 7:0.3958 8:-0.995201 9:-0.999143 10:-0.0072643 11:0.445041 12:-0.99964 13:0.621967 14:-0.999648 15:-0.972587 16:-0.769173 17:-1 18:-1 19:-0.983538 20:-0.778744 21:-1 22:-1 23:-0.985979 24:-0.844157 25:-0.991186 26:-0.942703 27:-1 28:-1 29:-0.90806 30:-0.895646 31:-1 32:-1 33:-0.961732 34:-0.936595 35:-0.969629 36:-1 37:-0.964268 38:-1 39:-0.96307 40:-0.965381 41:-1 42:-0.950546 43:-1 44:-0.966776 45:-0.98229 46:-0.983437 47:-0.982517 48:-0.990868 49:-0.990588 50:-0.992248 51:-0.975248 52:-0.99187 53:-0.945946 54:-0.992048 55:-1 56:-0.949791 57:-0.980583 58:-0.975535 59:-0.979167 60:-1 61:-0.958333 62:-1 63:-1 64:-1 65:-0.97619 66:-1 67:-1 68:-0.909091 69:-1 70:-0.35299 71:-0.583923 
8 1:-0.99689 2:-0.892687 3:-0.93662 4:0.402197 5:-0.0676659 6:-0.93961 7:0.442663 8:-0.960043 9:-0.999697 10:-0.0073114 11:0.445196 12:-0.999827 13:0.62229 14:-0.999825 15:-0.995227 16:-0.986637 17:-1 18:-1 19:-1 20:-1 21:-1 22:-1 23:-0.994906 24:-0.885626 25:-1 26:-1 27:-1 28:-1 29:-0.998574 30:-0.862558 31:-1 32:-1 33:-0.990447 34:-0.977877 35:-0.891335 36:-1 37:-0.872137 38:-1 39:-0.873704 40:-0.866628 41:-1 42:-0.835435 43:-1 44:-0.890065 45:-0.996205 46:-1 47:-1 48:-1 49:-1 50:-1 51:-0.970297 52:-1 53:-1 54:-1 55:-1 56:-1 57:-0.97411 58:-1 59:-1 60:-1 61:-1 62:-1 63:-1 64:-1 65:-1 66:-1 67:-1 68:-1 69:-1 70:-0.952548 71:-0.971474 
1.266309706019612 1:-0.765338 2:-0.995036 3:-0.997195 4:0.492137 5:-0.0300001 6:-0.995701 7:0.388955 8:-0.996654 9:-0.97883 10:-0.0030401 11:0.452375 12:-0.991779 13:0.620156 14:-0.991669 15:-0.90489 16:-0.657988 17:-0.927355 18:-0.698789 19:-0.939079 20:-0.694934 21:-0.949138 22:-0.7761 23:-0.877683 24:-0.693523 25:-0.872376 26:-0.563722 27:-0.875215 28:-0.894476 29:-0.871243 30:-0.867808 31:-0.870162 32:-0.938257 33:-0.891143 34:-0.926863 35:-0.99255 36:-0.989655 37:-0.991756 38:-0.990269 39:-0.992882 40:-0.993091 41:-0.992898 42:-0.991217 43:-0.99104 44:-0.993635 45:-0.950664 46:-0.983437 47:-0.996503 48:-0.96347 49:-0.938824 50:-0.94186 51:-0.915842 52:-0.837398 53:-0.831081 54:-0.880716 55:-0.89267 56:-0.757322 57:-0.572816 58:-0.41896 59:-0.430556 60:-0.0412371 61:0.555556 62:-0.592105 63:-0.546392 64:-0.692308 65:-0.619048 66:-0.219512 67:-0.777778 68:-0.454545 69:-0.878788 70:-0.29578 71:-0.0820752 
8 1:-0.999435 2:-0.823956 3:-0.787874 4:0.509563 5:0.0358442 6:-0.998813 7:0.395461 8:-0.96376 9:-0.999994 10:-0.00727271 11:0.445112 12:-0.999961 13:0.622265 14:-0.999964 15:-0.997709 16:-0.975434 17:-1 18:-1 19:-1 20:-1 21:-1 22:-1 23:-1 24:-1 25:-0.999607 26:-0.966295 27:-1 28:-1 29:-1 30:-1 31:-1 32:-1 33:-1 34:-1 35:-0.815076 36:-1 37:-1 38:-1 39:-1 40:-0.791895 41:-1 42:-1 43:-1 44:-0.824847 45:-0.99494 46:-1 47:-1 48:-1 49:-1 50:-1 51:-1 52:-1 53:-1 54:-1 55:-1 56:-1 57:-1 58:-1 59:-1 60:-1 61:-1 62:-1 63:-1 64:-1 65:-1 66:-1 67:-1 68:-1 69:-1 70:-0.170878 71:-0.800317 
8 1:-0.986995 2:-0.934574 3:-0.951276 4:0.538249 5:-0.0745542 6:-0.972245 7:0.337769 8:-0.929391 9:-0.999381 10:-0.00716462 11:0.445007 12:-0.999766 13:0.622283 14:-0.999753 15:-0.924261 16:-0.83419 17:-1 18:-1 19:-1 20:-1 21:-0.942709 22:-0.798716 23:-1 24:-1 25:-1 26:-1 27:-0.958855 28:-0.914001 29:-1 30:-1 31:-1 32:-1 33:-0.98533 34:-0.947278 35:-0.93337 36:-1 37:-1 38:-0.898391 39:-1 40:-1 41:-0.92149 42:-1 43:-1 44:-0.932061 45:-0.99494 46:-0.989648 47:-0.996503 48:-1 49:-0.981176 50:-1 51:-1 52:-0.99187 53:-0.993243 54:-1 55:-0.997382 56:-0.962343 57:-0.987055 58:-0.969419 59:-0.965278 60:-0.989691 61:-0.944444 62:-0.973684 63:-0.979381 64:-0.948718 65:-1 66:-1 67:-1 68:-1 69:-1 70:-0.609689 71:-0.411818 
1.65942427596438 1:-0.978513 2:-0.972486 3:-0.979642 4:0.51215 5:-0.0249196 6:-0.984301 7:0.395373 8:-0.995245 9:-0.999076 10:-0.0073299 11:0.444938 12:-0.999612 13:0.622062 14:-0.999626 15:-0.971012 16:-0.766386 17:-1 18:-1 19:-0.98553 20:-0.798579 21:-1 22:-1 23:-0.985038 24:-0.784667 25:-1 26:-1 27:-1 28:-1 29:-0.899111 30:-0.875664 31:-1 32:-1 33:-0.963661 34:-0.935498 35:-0.96964 36:-1 37:-0.964319 38:-1 39:-0.963576 40:-1 41:-1 42:-0.950337 43:-1 44:-0.966543 45:-0.981025 46:-0.987578 47:-0.975524 48:-0.995434 49:-0.981176 50:-0.98062 51:-0.975248 52:-0.99187 53:-0.959459 54:-0.996024 55:-0.986911 56:-0.987448 57:-0.980583 58:-0.969419 59:-0.986111 60:-0.969072 61:-0.972222 62:-1 63:-0.958763 64:-1 65:-1 66:-1 67:-1 68:-1 69:-0.878788 70:-0.339083 71:-0.600073 
3.698509536990841 1:-0.980209 2:-0.943797 3:-0.999198 4:0.477856 5:-0.0313785 6:-0.934903 7:0.39966 8:-0.994859 9:-0.997732 10:-0.00713812 11:0.436436 12:-0.999636 13:0.615554 14:-0.999581 15:-0.822011 16:-0.741971 17:-1 18:-1 19:-1 20:-1 21:-0.82981 22:-0.822143 23:-1 24:-1 25:-1 26:-1 27:-0.875581 28:-0.910203 29:-1 30:-1 31:-1 32:-1 33:-0.956142 34:-0.956513 35:-0.940306 36:-1 37:-1 38:-0.908506 39:-1 40:-1 41:-0.928131 42:-1 43:-1 44:-0.9367 45:-0.996205 46:-1 47:-0.993007 48:-0.990868 49:-0.995294 50:-0.996124 51:-0.980198 52:-0.98374 53:-0.966216 54:-1 55:-0.979058 56:-0.995816 57:-0.961165 58:-0.975535 59:-0.993056 60:-0.979381 61:-0.972222 62:-0.960526 63:-0.876289 64:-1 65:-0.857143 66:-0.658537 67:-0.888889 68:-0.727273 69:-0.939394 70:-0.541785 71:-0.521309 
8 1:-0.998304 2:-0.890671 3:-0.999637 4:0.480453 5:-0.0298646 6:-0.872726 7:0.362303 8:-0.995742 9:-0.99988 10:-0.00727944 11:0.445037 12:-0.999917 13:0.622227 14:-0.999916 15:-0.970423 16:-0.831405 17:-1 18:-1 19:-1 20:-1 21:-1 22:-1 23:-1 24:-1 25:-1 26:-1 27:-0.966479 28:-0.987184 29:-1 30:-1 31:-1 32:-1 33:-0.992023 34:-0.985018 35:-0.88712 36:-1 37:-1 38:-1 39:-1 40:-1 41:-0.859983 42:-1 43:-1 44:-0.881953 45:-0.996205 46:-1 47:-1 48:-1 49:-1 50:-1 51:-1 52:-1 53:-1 54:-1 55:-1 56:-1 57:-0.993528 58:-1 59:-1 60:-1 61:-1 62:-1 63:-0.979381 64:-1 65:-0.97619 66:-0.95122 67:-1 68:-1 69:-0.939394 70:0.198298 71:-0.22592 
4.64510410755424 1:-0.736217 2:-0.993285 3:-0.989612 4:0.485993 5:-0.0369666 6:-0.999869 7:0.388939 8:-0.986728 9:-0.965177 10:-0.00316122 11:0.440916 12:-0.988475 13:0.625287 14:-0.988579 15:-0.854589 16:-0.767495 17:-0.875093 18:-0.782307 19:-0.883159 20:-0.763827 21:-0.896456 22:-0.76742 23:-0.925172 24:-0.701223 25:-0.927627 26:-0.532321 27:-0.915607 28:-0.793877 29:-0.881054 30:-0.516331 31:-0.914689 32:-0.728797 33:-0.930864 34:-0.73048 35:-0.990564 36:-0.986334 37:-0.9897 38:-0.98675 39:-0.989661 40:-0.989773 41:-0.990017 42:-0.987152 43:-0.986345 44:-0.990367 45:-0.397849 46:-0.983437 47:-0.982517 48:-0.945205 49:-0.929412 50:-0.918605 51:-0.915842 52:-0.837398 53:-0.912162 54:-0.936382 55:-0.91623 56:-0.870293 57:-0.76699 58:-0.718654 59:-0.701389 60:-0.587629 61:-0.611111 62:-0.592105 63:-0.690722 64:-0.769231 65:-0.785714 66:-0.804878 67:-0.833333 68:-0.727273 69:-0.878788 70:-0.0753304 71:-0.591697 
8 1:-0.988408 2:-0.952152 3:-0.997407 4:0.47175 5:-0.0316199 6:-0.947068 7:0.395446 8:-0.995266 9:-0.998146 10:-0.00711794 11:0.44543 12:-0.999611 13:0.622699 14:-0.99956 15:-0.896851 16:-0.93 17:-1 18:-1 19:-0.985039 20:-0.923674 21:-1 22:-1 23:-1 24:-1 25:-0.949906 26:-0.732585 27:-1 28:-1 29:-0.915974 30:-0.845963 31:-1 32:-1 33:-0.957014 34:-0.965259 35:-0.94668 36:-1 37:-0.937111 38:-1 39:-1 40:-0.937642 41:-1 42:-0.926471 43:-1 44:-0.948764 45:-0.996205 46:-1 47:-0.996503 48:-0.990868 49:-0.990588 50:-0.972868 51:-0.99505 52:-0.97561 53:-0.993243 54:-0.992048 55:-1 56:-1 57:-0.993528 58:-0.993884 59:-0.993056 60:-0.969072 61:-0.944444 62:-1 63:-0.896907 64:-0.871795 65:-0.97619 66:-1 67:-1 68:-1 69:-1 70:-0.372681 71:-0.479615 
8 1:-0.995476 2:-0.899768 3:-0.881282 4:0.512612 5:-0.0491881 6:-0.997204 7:0.38359 8:-0.993958 9:-0.999686 10:-0.00723654 11:0.44551 12:-0.999712 13:0.622288 14:-0.999715 15:-0.986253 16:-0.950436 17:-1 18:-1 19:-0.959392 20:-0.823609 21:-1 22:-1 23:-1 24:-1 25:-0.973391 26:-0.985134 27:-1 28:-1 29:-0.958632 30:-0.733838 31:-1 32:-1 33:-0.985101 34:-0.960527 35:-0.893889 36:-1 37:-0.879073 38:-1 39:-1 40:-0.882379 41:-1 42:-0.846568 43:-1 44:-0.897992 45:-0.998735 46:-1 47:-1 48:-0.986301 49:-0.995294 50:-1 51:-0.990099 52:-0.99187 53:-1 54:-0.996024 55:-1 56:-1 57:-1 58:-1 59:-1 60:-0.979381 61:-0.986111 62:-0.986842 63:-0.979381 64:-1 65:-0.97619 66:-0.95122 67:-1 68:-0.909091 69:-0.939394 70:-0.279184 71:-0.12303 
8 1:-0.996607 2:-0.549929 3:-0.480539 4:0.360462 5:-0.0230652 6:-0.983703 7:0.385912 8:-0.999005 9:-0.999691 10:-0.00800618 11:0.445143 12:-0.999865 13:0.620485 14:-0.999857 15:-0.945664 16:-0.72068 17:-1 18:-1 19:-1 20:-1 21:-1 22:-1 23:-1 24:-1 25:-1 26:-1 27:-1 28:-1 29:-1 30:-1 31:-1 32:-1 33:-0.984567 34:-0.826975 35:-0.546825 36:-1 37:-1 38:-1 39:-1 40:-1 41:-1 42:-1 43:-1 44:-0.544293 45:-0.99747 46:-0.99793 47:-1 48:-1 49:-0.995294 50:-0.992248 51:-0.99505 52:-0.98374 53:-0.993243 54:-0.996024 55:-1 56:-1 57:-1 58:-1 59:-1 60:-1 61:-0.986111 62:-1 63:-0.979381 64:-1 65:-1 66:-1 67:-0.944444 68:-1 69:-1 70:-0.598625 71:-0.53999 
8 1:-0.983036 2:-0.970569 3:-0.9796 4:0.512374 5:-0.0270167 6:-0.984054 7:0.392622 8:-0.997434 9:-0.99945 10:-0.0070742 11:0.445388 12:-0.999711 13:0.622191 14:-0.999724 15:-0.975576 16:-0.862566 17:-1 18:-1 19:-0.983428 20:-0.859841 21:-1 22:-1 23:-0.98756 24:-0.824391 25:-1 26:-1 27:-1 28:-1 29:-0.91297 30:-0.916575 31:-1 32:-1 33:-0.965833 34:-0.936135 35:-0.969388 36:-1 37:-0.963763 38:-1 39:-0.963532 40:-1 41:-1 42:-0.950285 43:-1 44:-0.966681 45:-0.98735 46:-0.989648 47:-0.982517 48:-0.995434 49:-0.990588 50:-0.984496 51:-0.990099 52:-0.99187 53:-0.986486 54:-0.980119 55:-0.989529 56:-0.991632 57:-0.97411 58:-0.987768 59:-0.979167 60:-0.938144 61:-0.972222 62:-1 63:-1 64:-0.974359 65:-1 66:-1 67:-0.944444 68:-1 69:-1 70:-0.375196 71:-0.573164 
8 1:-0.997173 2:-0.891655 3:-0.999661 4:0.481491 5:-0.0338389 6:-0.879338 7:0.526069 8:-0.876592 9:-0.999837 10:-0.00716504 11:0.445246 12:-0.999863 13:0.62199 14:-0.999868 15:-0.945384 16:-0.953617 17:-1 18:-1 19:-1 20:-1 21:-0.963992 22:-0.776056 23:-1 24:-1 25:-1 26:-1 27:-1 28:-1 29:-1 30:-1 31:-1 32:-1 33:-0.991658 34:-0.991987 35:-0.889003 36:-1 37:-1 38:-0.831404 39:-1 40:-1 41:-0.86991 42:-1 43:-1 44:-0.880797 45:-0.99747 46:-0.995859 47:-1 48:-0.995434 49:-0.995294 50:-1 51:-1 52:-0.99187 53:-0.993243 54:-1 55:-1 56:-1 57:-1 58:-1 59:-1 60:-0.958763 61:-1 62:-1 63:-1 64:-1 65:-1 66:-1 67:-1 68:-1 69:-1 70:-0.198879 71:-0.551139 
1.646298756523792 1:-0.992649 2:-0.709596 3:-0.668784 4:0.36714 5:-0.105162 6:-0.977061 7:0.417542 8:-0.966298 9:-0.999363 10:-0.00728124 11:0.444996 12:-0.999636 13:0.622249 14:-0.999654 15:-0.968026 16:-0.892466 17:-1 18:-1 19:-1 20:-1 21:-1 22:-1 23:-0.870142 24:-0.778364 25:-1 26:-1 27:-1 28:-1 29:-1 30:-1 31:-1 32:-1 33:-0.927816 34:-0.892703 35:-0.705656 36:-1 37:-1 38:-1 39:-0.651832 40:-1 41:-1 42:-1 43:-1 44:-0.687915 45:-0.99747 46:-1 47:-0.996503 48:-0.995434 49:-0.981176 50:-1 51:-0.99505 52:-0.99187 53:-0.972973 54:-0.984095 55:-0.997382 56:-0.995816 57:-0.993528 58:-0.993884 59:-0.986111 60:-0.989691 61:-0.986111 62:-1 63:-1 64:-0.948718 65:-1 66:-1 67:-1 68:-1 69:-1 70:-0.600921 71:-0.65878 
3.182288433856358 1:-0.996607 2:-0.852463 3:-0.823766 4:0.505635 5:-0.0437431 6:-0.999031 7:0.386424 8:-0.99693 9:-0.99987 10:-0.00724243 11:0.44511 12:-0.999843 13:0.622375 14:-0.999851 15:-0.996664 16:-0.97905 17:-1 18:-1 19:-1 20:-1 21:-0.977399 22:-0.910792 23:-1 24:-1 25:-1 26:-1 27:-0.970705 28:-0.958651 29:-1 30:-1 31:-1 32:-1 33:-0.965665 34:-0.931722 35:-0.851668 36:-1 37:-1 38:-0.774727 39:-1 40:-1 41:-0.823089 42:-1 43:-1 44:-0.8504 45:-0.998735 46:-1 47:-1 48:-1 49:-1 50:-1 51:-0.990099 52:-0.99187 53:-0.986486 54:-1 55:-0.997382 56:-1 57:-0.993528 58:-0.993884 59:-0.993056 60:-1 61:-0.972222 62:-1 63:-1 64:-1 65:-1 66:-1 67:-0.944444 68:-0.909091 69:-1 70:-0.0103732 71:0.141891 
8 1:-0.997455 2:-0.90076 3:-0.941431 4:0.40919 5:-0.0366982 6:-0.945059 7:0.396906 8:-0.998542 9:-0.9998 10:-0.00729205 11:0.445165 12:-0.999939 13:0.622213 14:-0.999931 15:-1 16:-1 17:-1 18:-1 19:-1 20:-1 21:-0.938763 22:-0.875249 23:-1 24:-1 25:-1 26:-1 27:-0.94138 28:-0.884803 29:-1 30:-1 31:-1 32:-1 33:-0.989124 34:-0.980896 35:-0.899112 36:-1 37:-1 38:-0.849316 39:-1 40:-1 41:-0.88247 42:-1 43:-1 44:-0.900063 45:-0.99494 46:-1 47:-1 48:-1 49:-1 50:-0.996124 51:-1 52:-1 53:-1 54:-1 55:-0.994764 56:-1 57:-1 58:-1 59:-1 60:-0.989691 61:-1 62:-1 63:-1 64:-1 65:-0.928571 66:-1 67:-1 68:-1 69:-1 70:-0.917049 71:-0.953777 
8 1:-0.981057 2:-0.970759 3:-0.979543 4:0.512401 5:-0.0269679 6:-0.984059 7:0.39268 8:-0.997368 9:-0.999294 10:-0.00736692 11:0.445193 12:-0.99967 13:0.622311 14:-0.999679 15:-0.978088 16:-0.851349 17:-1 18:-1 19:-0.981027 20:-0.847065 21:-1 22:-1 23:-0.98709 24:-0.787429 25:-1 26:-1 27:-1 28:-1 29:-0.906681 30:-0.895675 31:-1 32:-1 33:-0.960738 34:-0.936487 35:-0.969562 36:-1 37:-0.96364 38:-1 39:-0.963496 40:-1 41:-1 42:-0.950027 43:-1 44:-0.966744 45:-0.98229 46:-0.985507 47:-0.979021 48:-0.995434 49:-0.995294 50:-0.984496 51:-0.975248 52:-0.97561 53:-0.972973 54:-0.996024 55:-0.997382 56:-0.962343 57:-0.97411 58:-0.987768 59:-0.979167 60:-0.979381 61:-0.986111 62:-1 63:-0.979381 64:-1 65:-1 66:-1 67:-1 68:-1 69:-1 70:-0.383474 71:-0.614581 
7.208073571473093 1:-0.992932 2:-0.89181 3:-0.971875 4:0.416781 5:0.0114942 6:-0.906714 7:0.272364 8:-0.888942 9:-0.999503 10:-0.00726235 11:0.44515 12:-0.999906 13:0.622258 14:-0.999886 15:-0.962623 16:-0.985223 17:-1 18:-1 19:-1 20:-1 21:-1 22:-1 23:-0.887249 24:-0.898425 25:-1 26:-1 27:-1 28:-1 29:-1 30:-1 31:-1 32:-1 33:-0.954746 34:-0.947044 35:-0.888611 36:-1 37:-1 38:-1 39:-0.87313 40:-0.868285 41:-1 42:-1 43:-1 44:-0.887903 45:-0.988615 46:-0.991718 47:-1 48:-1 49:-1 50:-1 51:-1 52:-1 53:-1 54:-1 55:-1 56:-1 57:-1 58:-1 59:-1 60:-0.969072 61:-0.986111 62:-0.986842 63:-0.979381 64:-0.974359 65:-0.97619 66:-0.902439 67:-0.888889 68:-0.909091 69:-0.939394 70:0.2928 71:-0.297147 
8 1:-0.997173 2:-0.890879 3:-0.999724 4:0.481552 5:-0.0339706 6:-0.879905 7:0.532389 8:-0.86449 9:-0.99987 10:-0.00725757 11:0.445192 12:-0.999899 13:0.622278 14:-0.999904 15:-0.938513 16:-0.921559 17:-1 18:-1 19:-1 20:-1 21:-0.962392 22:-0.890994 23:-1 24:-1 25:-1 26:-1 27:-0.949581 28:-0.923925 29:-1 30:-1 31:-1 32:-1 33:-1 34:-1 35:-0.888833 36:-1 37:-1 38:-0.832821 39:-1 40:-1 41:-0.866895 42:-1 43:-1 44:-0.883637 45:-0.99747 46:-0.99793 47:-1 48:-0.995434 49:-1 50:-1 51:-1 52:-0.98374 53:-1 54:-1 55:-1 56:-0.991632 57:-1 58:-1 59:-0.993056 60:-1 61:-0.972222 62:-1 63:-1 64:-0.974359 65:-1 66:-1 67:-1 68:-1 69:-1 70:-0.317116 71:-0.522125 
8 1:-0.982188 2:-0.970488 3:-0.979409 4:0.512523 5:-0.0274717 6:-0.984009 7:0.392001 8:-0.997938 9:-0.99937 10:-0.00746785 11:0.445012 12:-0.999694 13:0.62548 14:-0.999699 15:-0.977259 16:-0.881149 17:-1 18:-1 19:-0.978898 20:-0.854137 21:-1 22:-1 23:-0.987876 24:-0.813456 25:-1 26:-1 27:-1 28:-1 29:-0.898773 30:-0.89761 31:-1 32:-1 33:-0.941387 34:-0.938477 35:-0.969569 36:-1 37:-0.963697 38:-1 39:-0.963263 40:-1 41:-1 42:-0.949885 43:-1 44:-0.966422 45:-0.986085 46:-0.983437 47:-0.993007 48:-0.995434 49:-0.990588 50:-0.984496 51:-0.99505 52:-0.96748 53:-0.993243 54:-0.988072 55:-0.992147 56:-0.991632 57:-0.941748 58:-0.987768 59:-0.993056 60:-0.948454 61:-0.986111 62:-0.986842 63:-0.979381 64:-0.974359 65:-0.97619 66:-1 67:-1 68:-1 69:-0.939394 70:-0.343823 71:-0.564665 
8 1:-0.980209 2:-0.943423 3:-0.999197 4:0.477871 5:-0.0310619 6:-0.934624 7:0.395247 8:-0.995976 9:-0.997834 10:-0.00697663 11:0.444958 12:-0.999616 13:0.622197 14:-0.999567 15:-0.827017 16:-0.758742 17:-1 18:-1 19:-1 20:-1 21:-0.833689 22:-0.744495 23:-1 24:-1 25:-1 26:-1 27:-0.885912 28:-0.953684 29:-1 30:-1 31:-1 32:-1 33:-0.941571 34:-0.91719 35:-0.940134 36:-1 37:-1 38:-0.908301 39:-1 40:-1 41:-0.928507 42:-1 43:-1 44:-0.935823 45:-0.99494 46:-0.995859 47:-0.996503 48:-0.990868 49:-0.981176 50:-0.976744 51:-0.950495 52:-0.926829 53:-0.966216 54:-0.988072 55:-0.986911 56:-0.962343 57:-0.967638 58:-0.963303 59:-0.993056 60:-1 61:-1 62:-1 63:-1 64:-1 65:-1 66:-1 67:-1 68:-1 69:-1 70:-0.526686 71:-0.502463 
4.299981805062499 1:-0.99067 2:-0.91307 3:-0.973564 4:0.426889 5:-0.0383927 6:-0.926817 7:0.407645 8:-0.993422 9:-0.99818 10:-0.00569641 11:0.443134 12:-0.999732 13:0.622309 14:-0.999649 15:-1 16:-1 17:-0.976677 18:-0.953934 19:-1 20:-1 21:-0.912032 22:-0.778867 23:-1 24:-1 25:-0.878166 26:-0.832297 27:-1 28:-1 29:-0.864578 30:-0.673636 31:-0.940803 32:-0.968427 33:-1 34:-1 35:-0.912646 36:-0.867447 37:-1 38:-0.863557 39:-1 40:-0.894016 41:-1 42:-0.866308 43:-0.861654 44:-0.910256 45:-0.986085 46:-1 47:-1 48:-1 49:-1 50:-1 51:-1 52:-1 53:-1 54:-1 55:-1 56:-1 57:-1 58:-1 59:-1 60:-1 61:-1 62:-1 63:-1 64:-1 65:-1 66:-1 67:-1 68:-1 69:0.454545 70:-0.978782 71:-0.984592 
0.02444513912202678 1:-0.963246 2:-0.95927 3:-0.986143 4:0.517779 5:-0.0301434 6:-0.964626 7:0.388884 8:-0.996221 9:-0.996712 10:-0.00789179 11:0.446825 12:-0.998115 13:0.62339 14:-0.998167 15:-0.92713 16:-0.746662 17:-0.92226 18:-0.817676 19:-0.911814 20:-0.839215 21:-1 22:-1 23:-0.912242 24:-0.882821 25:-0.910997 26:-0.842462 27:-1 28:-1 29:-0.88069 30:-0.737325 31:-0.896021 32:-0.951317 33:-0.97305 34:-0.968732 35:-0.953922 36:-0.931498 37:-0.947812 38:-1 39:-0.949797 40:-0.949986 41:-1 42:-0.934299 43:-0.931176 44:-0.955442 45:-0.991145 46:-0.985507 47:-0.912587 48:-0.849315 49:-0.943529 50:-0.965116 51:-0.99505 52:-0.95935 53:-0.966216 54:-0.984095 55:-1 56:-1 57:-0.967638 58:-1 59:-0.965278 60:-0.969072 61:-0.930556 62:-1 63:-0.979381 64:-0.974359 65:-1 66:-0.95122 67:-0.833333 68:-1 69:-1 70:-0.458482 71:-0.683542 
8 1:-0.994628 2:-0.715484 3:-0.666322 4:0.547757 5:-0.0311026 6:-0.994285 7:0.387799 8:-0.999705 9:-0.999653 10:-0.00721551 11:0.445396 12:-0.999622 13:0.622252 14:-0.999626 15:-0.991023 16:-0.815518 17:-1 18:-1 19:-1 20:-1 21:-0.98504 22:-0.796941 23:-1 24:-1 25:-1 26:-1 27:-0.966486 28:-0.836933 29:-1 30:-1 31:-1 32:-1 33:-0.978022 34:-0.935515 35:-0.707126 36:-1 37:-1 38:-0.565133 39:-1 40:-1 41:-0.667293 42:-1 43:-1 44:-0.715639 45:-0.998735 46:-0.99793 47:-1 48:-1 49:-1 50:-0.992248 51:-1 52:-0.97561 53:-0.986486 54:-1 55:-1 56:-0.983264 57:-1 58:-0.993884 59:-0.993056 60:-0.989691 61:-1 62:-0.960526 63:-1 64:-0.948718 65:-1 66:-1 67:-1 68:-1 69:-1 70:-0.576939 71:-0.53609 
4.426768840121018 1:-0.963246 2:-0.970461 3:-0.979555 4:0.512434 5:-0.027086 6:-0.984008 7:0.392531 8:-0.997581 9:-0.998683 10:-0.00749477 11:0.444567 12:-0.999381 13:0.622068 14:-0.999393 15:-0.977226 16:-0.86074 17:-1 18:-1 19:-0.982526 20:-0.847415 21:-1 22:-1 23:-0.984837 24:-0.803481 25:-1 26:-1 27:-1 28:-1 29:-0.900374 30:-0.876036 31:-1 32:-1 33:-0.961074 34:-0.910129 35:-0.969444 36:-1 37:-0.963753 38:-1 39:-0.963392 40:-1 41:-1 42:-0.950105 43:-1 44:-0.966614 45:-0.97723 46:-0.975155 47:-0.961538 48:-0.954338 49:-0.985882 50:-0.972868 51:-0.985149 52:-0.902439 53:-0.939189 54:-0.992048 55:-0.992147 56:-0.937238 57:-0.94822 58:-0.975535 59:-0.951389 60:-0.979381 61:-0.986111 62:-0.986842 63:-0.979381 64:-1 65:-1 66:-0.95122 67:-0.944444 68:-1 69:-0.939394 70:-0.378213 71:-0.583952 
8 1:-0.997455 2:-0.89119 3:-0.999723 4:0.481491 5:-0.0340382 6:-0.879311 7:0.534443 8:-0.862065 9:-0.999845 10:-0.0073299 11:0.445098 12:-0.999909 13:0.622315 14:-0.999908 15:-0.961138 16:-0.982791 17:-1 18:-1 19:-1 20:-1 21:-0.962022 22:-0.774026 23:-1 24:-1 25:-1 26:-1 27:-1 28:-1 29:-1 30:-1 31:-1 32:-1 33:-1 34:-1 35:-0.889412 36:-1 37:-1 38:-0.830118 39:-1 40:-1 41:-0.860055 42:-1 43:-1 44:-0.883744 45:-0.996205 46:-0.99793 47:-0.996503 48:-1 49:-1 50:-1 51:-0.99505 52:-1 53:-1 54:-0.996024 55:-0.997382 56:-1 57:-1 58:-0.987768 59:-1 60:-1 61:-1 62:-1 63:-1 64:-1 65:-0.97619 66:-1 67:-1 68:-1 69:-1 70:-0.132839 71:-0.543318 
3.07819861513392 1:-0.998869 2:-0.632831 3:-0.564264 4:0.502581 5:-0.0717708 6:-0.999737 7:0.38635 8:-0.993288 9:-0.999959 10:-0.00726261 11:0.445153 12:-0.999959 13:0.62227 14:-0.999959 15:-0.963311 16:-0.863676 17:-1 18:-1 19:-1 20:-1 21:-1 22:-1 23:-1 24:-1 25:-1 26:-1 27:-1 28:-1 29:-1 30:-1 31:-1 32:-1 33:-0.997266 34:-0.974385 35:-0.630435 36:-1 37:-1 38:-1 39:-1 40:-1 41:-1 42:-1 43:-1 44:-0.632175 45:-0.998735 46:-1 47:-1 48:-1 49:-1 50:-0.996124 51:-0.99505 52:-1 53:-1 54:-1 55:-1 56:-1 57:-0.993528 58:-1 59:-0.993056 60:-1 61:-0.986111 62:-1 63:-1 64:-1 65:-1 66:-1 67:-1 68:-1 69:-1 70:-0.577114 71:-0.356577 
5.677490709303354 1:-0.98134 2:-0.940889 3:-0.936541 4:0.517963 5:-0.0308755 6:-0.992315 7:0.387736 8:-0.99947 9:-0.998963 10:-0.0071314 11:0.444784 12:-0.999548 13:0.62233 14:-0.99952 15:-0.986593 16:-0.922628 17:-1 18:-1 19:-0.977365 20:-0.831914 21:-1 22:-1 23:-1 24:-1 25:-0.969102 26:-0.679829 27:-1 28:-1 29:-0.967693 30:-0.671089 31:-1 32:-1 33:-0.945749 34:-0.83249 35:-0.93823 36:-1 37:-0.928294 38:-1 39:-1 40:-0.929651 41:-1 42:-0.90866 43:-1 44:-0.939638 45:-0.99747 46:-1 47:-0.98951 48:-0.990868 49:-0.990588 50:-0.984496 51:-0.965347 52:-0.95122 53:-0.972973 54:-0.980119 55:-0.989529 56:-0.983264 57:-0.987055 58:-0.975535 59:-1 60:-0.979381 61:-0.972222 62:-0.973684 63:-0.896907 64:-0.948718 65:-0.928571 66:-0.902439 67:-0.944444 68:-1 69:-1 70:-0.0724377 71:0.0678689 
3.875221934821206 1:-0.909811 2:-0.980213 3:-0.973349 4:0.491109 5:-0.0242843 6:-0.999688 7:0.388846 8:-0.994586 9:-0.982795 10:-0.0082417 11:0.440536 12:-0.996389 13:0.622021 14:-0.9957 15:-0.901275 16:-0.832847 17:-0.935458 18:-0.810019 19:-0.976661 20:-0.814855 21:-0.957354 22:-0.774606 23:-0.980181 24:-0.673543 25:-0.945873 26:-0.193814 27:-0.939193 28:-0.638481 29:-0.94056 30:-0.373218 31:-0.959442 32:-0.877865 33:-0.973159 34:-0.907409 35:-0.977985 36:-0.965184 37:-0.972615 38:-0.966033 39:-0.975245 40:-0.973753 41:-0.973238 42:-0.965157 43:-0.96392 44:-0.97567 45:-0.960784 46:-0.971014 47:-0.944056 48:-0.885845 49:-0.872941 50:-0.895349 51:-0.905941 52:-0.878049 53:-0.891892 54:-0.908549 55:-0.939791 56:-0.924686 57:-0.838188 58:-0.938838 59:-0.930556 60:-0.917526 61:-0.958333 62:-0.934211 63:-0.958763 64:-0.974359 65:-1 66:-0.902439 67:-1 68:-0.909091 69:-1 70:-0.0880804 71:-0.303521 
6.568324922802662 1:-0.999717 2:-0.443032 3:-0.348913 4:0.407845 5:-0.391582 6:-0.994908 7:0.436153 8:-0.64929 9:-0.99999 10:-0.00726198 11:0.445159 12:-0.999972 13:0.622264 14:-0.999973 15:-1 16:-1 17:-1 18:-1 19:-1 20:-1 21:-1 22:-1 23:-1 24:-1 25:-1 26:-1 27:-1 28:-1 29:-1 30:-1 31:-1 32:-1 33:-0.995584 34:-0.936502 35:-0.444163 36:-1 37:-1 38:-1 39:-1 40:-1 41:-1 42:-1 43:-1 44:-0.444394 45:-0.998735 46:-1 47:-1 48:-1 49:-1 50:-1 51:-1 52:-1 53:-1 54:-1 55:-0.997382 56:-1 57:-1 58:-1 59:-1 60:-0.989691 61:-1 62:-1 63:-1 64:-1 65:-1 66:-1 67:-1 68:-1 69:-1 70:0.0417647 71:0.530903 
8 1:-0.996325 2:-0.89504 3:-0.999501 4:0.48105 5:-0.0331763 6:-0.879282 7:0.490745 8:-0.93064 9:-0.999603 10:-0.00754187 11:0.445524 12:-0.999731 13:0.622626 14:-0.999731 15:-0.941657 16:-0.900105 17:-1 18:-1 19:-0.964091 20:-0.701804 21:-1 22:-1 23:-0.990514 24:-0.782198 25:-1 26:-1 27:-1 28:-1 29:-0.983987 30:-0.987903 31:-1 32:-1 33:-1 34:-1 35:-0.892855 36:-1 37:-0.867215 38:-1 39:-0.865825 40:-1 41:-1 42:-0.820256 43:-1 44:-0.881496 45:-0.993675 46:-0.99793 47:-0.993007 48:-1 49:-1 50:-0.996124 51:-1 52:-1 53:-1 54:-1 55:-1 56:-0.995816 57:-0.993528 58:-0.993884 59:-1 60:-1 61:-0.986111 62:-1 63:-1 64:-1 65:-1 66:-1 67:-1 68:-0.909091 69:-0.939394 70:-0.0997987 71:-0.57706 
1.333361004778833 1:-0.599661 2:-0.993085 3:-0.999245 4:0.484427 5:-0.0315372 6:-0.991746 7:0.393487 8:-0.996074 9:-0.97015 10:-0.0130665 11:0.412025 12:-0.986719 13:0.632884 14:-0.986006 15:-0.925064 16:-0.926161 17:-0.917657 18:-0.884085 19:-0.930607 20:-0.815952 21:-0.909477 22:-0.881025 23:-0.851233 24:-0.831836 25:-0.839792 26:-0.751104 27:-0.863696 28:-0.928161 29:-0.877152 30:-0.797723 31:-0.875901 32:-0.922449 33:-0.893128 34:-0.906433 35:-0.991459 36:-0.986965 37:-0.989976 38:-0.987109 39:-0.990936 40:-0.990743 41:-0.990391 42:-0.98741 43:-0.987482 44:-0.991249 45:-0.377609 46:-0.937888 47:-0.937063 48:-0.803653 49:-0.858824 50:-0.748062 51:-0.732673 52:-0.878049 53:-0.912162 54:-0.920477 55:-0.929319 56:-0.870293 57:-0.799353 58:-0.724771 59:-0.701389 60:-0.381443 61:-0.194444 62:-0.184211 63:1 64:0.230769 65:0.833333 66:0.560976 67:-0.277778 68:-0.181818 69:-0.69697 70:-0.04182 71:-0.470499 
8 1:-0.994628 2:-0.908329 3:-0.894951 4:0.458779 5:0.0665679 6:-0.995897 7:0.358919 8:-0.842294 9:-0.999839 10:-0.00722056 11:0.445197 12:-0.999939 13:0.622999 14:-0.999936 15:-0.970108 16:-0.807348 17:-1 18:-1 19:-1 20:-1 21:-1 22:-1 23:-1 24:-1 25:-0.967688 26:-0.779096 27:-1 28:-1 29:-1 30:-1 31:-1 32:-1 33:-1 34:-1 35:-0.907518 36:-1 37:-1 38:-1 39:-1 40:-0.890736 41:-1 42:-1 43:-1 44:-0.907426 45:-0.998735 46:-1 47:-1 48:-1 49:-0.990588 50:-1 51:-0.990099 52:-0.99187 53:-0.972973 54:-1 55:-0.997382 56:-0.995816 57:-0.993528 58:-0.993884 59:-1 60:-0.989691 61:-0.972222 62:-0.986842 63:-1 64:-1 65:-0.952381 66:-1 67:-1 68:-0.909091 69:-1 70:-0.191283 71:-0.235558 
8 1:-0.982471 2:-0.9516 3:-0.956993 4:0.524299 5:-0.0865174 6:-0.983455 7:0.335537 8:-0.868865 9:-0.998134 10:-0.00730772 11:0.445153 12:-0.999733 13:0.622221 14:-0.999688 15:-0.937464 16:-0.954576 17:-1 18:-1 19:-0.912236 20:-0.801618 21:-1 22:-1 23:-0.954571 24:-0.768768 25:-0.974289 26:-0.851873 27:-1 28:-1 29:-0.965671 30:-0.729724 31:-1 32:-1 33:-0.994252 34:-0.971307 35:-0.945448 36:-1 37:-0.939672 38:-1 39:-0.942043 40:-0.936276 41:-1 42:-0.920635 43:-1 44:-0.947383 45:-0.98988 46:-0.993789 47:-0.979021 48:-0.986301 49:-0.985882 50:-0.992248 51:-0.980198 52:-0.98374 53:-0.966216 54:-0.992048 55:-0.992147 56:-0.987448 57:-1 58:-0.975535 59:-0.986111 60:-0.989691 61:-0.986111 62:-0.921053 63:-0.958763 64:-1 65:-0.928571 66:-1 67:-1 68:-0.909091 69:-1 70:-0.374694 71:-0.562062 
8 1:-0.973141 2:-0.968027 3:-0.998838 4:0.495542 5:-0.0452392 6:-0.962407 7:0.245057 8:-0.579445 9:-0.997541 10:-0.00711794 11:0.445288 12:-0.998625 13:0.621367 14:-0.998619 15:-0.991685 16:-0.98767 17:-0.987537 18:-0.979181 19:-0.913815 20:-0.819738 21:-0.904666 22:-0.774747 23:-0.902099 24:-0.750698 25:-0.942898 26:-0.833093 27:-1 28:-1 29:-0.944166 30:-0.675433 31:-0.888318 32:-0.939127 33:-0.875739 34:-0.945705 35:-0.967497 36:-0.95082 37:-0.959822 38:-0.946015 39:-0.958711 40:-0.959936 41:-0.957606 42:-0.943978 43:-0.942371 44:-0.961239 45:-0.991145 46:-0.985507 47:-0.996503 48:-0.981735 49:-0.990588 50:-0.98062 51:-0.985149 52:-0.943089 53:-0.993243 54:-0.980119 55:-0.984293 56:-0.979079 57:-0.967638 58:-0.938838 59:-0.979167 60:-0.958763 61:-0.902778 62:-0.947368 63:-0.876289 64:-0.948718 65:-0.97619 66:-0.902439 67:-1 68:-1 69:-1 70:-0.298318 71:-0.380575 
4.777697367723726 1:-0.918575 2:-0.98528 3:-0.997434 4:0.478555 5:-0.032755 6:-0.982825 7:0.396747 8:-0.989654 9:-0.984109 10:-0.0039317 11:0.447257 12:-0.997458 13:0.631655 14:-0.997118 15:-0.862557 16:-0.741308 17:-0.961347 18:-0.709753 19:-0.836715 20:-0.825038 21:-0.753759 22:-0.752093 23:-0.968389 24:-0.941478 25:-0.750421 26:-0.635319 27:-0.889122 28:-0.883066 29:-0.919722 30:-0.678492 31:-0.954311 32:-0.987428 33:-0.946953 34:-0.965021 35:-0.979305 36:-0.970565 37:-0.979854 38:-0.970541 39:-0.98032 40:-0.978679 41:-0.979391 42:-0.975809 43:-0.971948 44:-0.981728 45:-0.868438 46:-0.966874 47:-0.958042 48:-0.968037 49:-0.971765 50:-0.968992 51:-0.940594 52:-0.902439 53:-0.945946 54:-0.960239 55:-0.965969 56:-0.933054 57:-0.92233 58:-0.914373 59:-0.965278 60:-0.938144 61:-0.805556 62:-0.973684 63:-0.979381 64:-0.974359 65:-0.952381 66:-0.707317 67:-0.833333 68:-1 69:-1 70:-0.161771 71:-0.578676 
8 1:-0.999435 2:-0.658593 3:-0.616425 4:0.364737 5:-0.0829749 6:-0.979418 7:0.406238 8:-0.987255 9:-0.999976 10:-0.0072643 11:0.445151 12:-0.999981 13:0.622284 14:-0.999981 15:-0.974275 16:-0.892205 17:-1 18:-1 19:-1 20:-1 21:-1 22:-1 23:-1 24:-1 25:-1 26:-1 27:-1 28:-1 29:-1 30:-1 31:-1 32:-1 33:-1 34:-1 35:-0.654949 36:-1 37:-1 38:-1 39:-1 40:-1 41:-1 42:-1 43:-1 44:-0.660679 45:-0.99747 46:-1 47:-1 48:-1 49:-1 50:-1 51:-0.99505 52:-1 53:-1 54:-1 55:-1 56:-1 57:-1 58:-1 59:-1 60:-1 61:-1 62:-1 63:-1 64:-1 65:-1 66:-1 67:-1 68:-0.909091 69:-1 70:-0.504235 71:-0.742631 
8 1:-0.998586 2:-0.596727 3:-0.52113 4:0.444025 5:-0.0568427 6:-0.997937 7:0.390517 8:-0.997015 9:-0.999913 10:-0.00734 11:0.445055 12:-0.999942 13:0.622232 14:-0.999941 15:-0.949097 16:-0.849087 17:-1 18:-1 19:-1 20:-1 21:-1 22:-1 23:-1 24:-1 25:-1 26:-1 27:-1 28:-1 29:-1 30:-1 31:-1 32:-1 33:-0.986422 34:-0.947083 35:-0.593368 36:-1 37:-1 38:-1 39:-1 40:-1 41:-1 42:-1 43:-1 44:-0.592247 45:-0.998735 46:-1 47:-1 48:-1 49:-0.990588 50:-1 51:-1 52:-1 53:-0.993243 54:-0.996024 55:-1 56:-1 57:-1 58:-1 59:-1 60:-1 61:-0.972222 62:-1 63:-1 64:-1 65:-1 66:-1 67:-1 68:-1 69:-1 70:-0.742568 71:-0.808637 
8 1:-0.879842 2:-0.986247 3:-0.995489 4:0.497701 5:-0.0348935 6:-0.986973 7:0.376363 8:-0.990024 9:-0.988986 10:-0.00644839 11:0.452414 12:-0.992997 13:0.621268 14:-0.992979 15:-0.960325 16:-0.762406 17:-0.971605 18:-0.777071 19:-0.948863 20:-0.716806 21:-0.972688 22:-0.703446 23:-0.942043 24:-0.638388 25:-0.920315 26:-0.529575 27:-0.917425 28:-0.799332 29:-0.888552 30:-0.672431 31:-0.927368 32:-0.83646 33:-0.935355 34:-0.831235 35:-0.982746 36:-0.97393 37:-0.980567 38:-0.976923 39:-0.982672 40:-0.982341 41:-0.982352 42:-0.976222 43:-0.97583 44:-0.982882 45:-0.940544 46:-0.968944 47:-0.940559 48:-0.803653 49:-0.745882 50:-0.75969 51:-0.628713 52:-0.813008 53:-0.864865 54:-0.932406 55:-0.986911 56:-0.949791 57:-0.967638 58:-0.969419 59:-0.958333 60:-0.958763 61:-0.916667 62:-0.960526 63:-0.876289 64:-0.948718 65:-1 66:-1 67:-1 68:-1 69:-1 70:-0.401678 71:-0.551647 
6.621943355369877 1:-0.909528 2:-0.974918 3:-0.967194 4:0.486949 5:-0.0377629 6:-0.999969 7:0.38804 8:-0.991185 9:-0.985893 10:-0.00430559 11:0.44158 12:-0.995439 13:0.622421 14:-0.995349 15:-0.840016 16:-0.742603 17:-0.866855 18:-0.755172 19:-0.886971 20:-0.713832 21:-0.943161 22:-0.765127 23:-0.911157 24:-0.466041 25:-0.927444 26:-0.277634 27:-0.922891 28:-0.694999 29:-0.944751 30:-0.487781 31:-0.961703 32:-0.779264 33:-0.951205 34:-0.908016 35:-0.970912 36:-0.957288 37:-0.967621 38:-0.957947 39:-0.967867 40:-0.968127 41:-0.967761 42:-0.958544 43:-0.958369 44:-0.972023 45:-0.981025 46:-0.958592 47:-0.891608 48:-0.753425 49:-0.835294 50:-0.953488 51:-0.935644 52:-0.845528 53:-0.837838 54:-0.916501 55:-0.939791 56:-0.83682 57:-0.94822 58:-0.987768 59:-0.979167 60:-1 61:-0.986111 62:-0.986842 63:-1 64:-0.974359 65:-1 66:-1 67:-1 68:-1 69:-1 70:-0.260902 71:-0.414002 
2.897065124696293 1:-0.976817 2:-0.944206 3:-0.999257 4:0.4785 5:-0.0314761 6:-0.93526 7:0.401896 8:-0.994056 9:-0.996853 10:-0.00744094 11:0.445068 12:-0.999445 13:0.622331 14:-0.999357 15:-0.995686 16:-0.97721 17:-1 18:-1 19:-0.994467 20:-0.999825 21:-0.824031 22:-0.752429 23:-1 24:-1 25:-0.825837 26:-0.66228 27:-1 28:-1 29:-0.84806 30:-0.871994 31:-1 32:-1 33:-0.940763 34:-0.914645 35:-0.942577 36:-1 37:-0.935001 38:-0.910327 39:-1 40:-0.930223 41:-1 42:-0.907681 43:-1 44:-0.935968 45:-0.98988 46:-0.991718 47:-0.993007 48:-0.96347 49:-0.952941 50:-0.930233 51:-0.955446 52:-0.910569 53:-0.972973 54:-0.964215 55:-1 56:-1 57:-1 58:-1 59:-0.993056 60:-1 61:-1 62:-1 63:-1 64:-1 65:-1 66:-1 67:-1 68:-1 69:-1 70:-0.43803 71:-0.528591 
8 1:-0.998586 2:-0.625094 3:-0.584808 4:0.335421 5:0.136035 6:-0.970795 7:0.321238 8:-0.882063 9:-0.999926 10:-0.0072071 11:0.445165 12:-0.999901 13:0.622267 14:-0.999905 15:-1 16:-1 17:-1 18:-1 19:-1 20:-1 21:-1 22:-1 23:-0.993029 24:-0.920196 25:-1 26:-1 27:-1 28:-1 29:-1 30:-1 31:-1 32:-1 33:-0.963055 34:-0.937382 35:-0.616479 36:-1 37:-1 38:-1 39:-0.565945 40:-1 41:-1 42:-1 43:-1 44:-0.619785 45:-0.998735 46:-1 47:-1 48:-1 49:-0.995294 50:-1 51:-0.990099 52:-1 53:-0.993243 54:-0.996024 55:-1 56:-1 57:-1 58:-1 59:-1 60:-0.989691 61:-1 62:-1 63:-1 64:-1 65:-1 66:-1 67:-1 68:-1 69:-1 70:-0.680041 71:-0.711569 
8 1:-0.977947 2:-0.972013 3:-0.979299 4:0.512495 5:-0.0308945 6:-0.984112 7:0.387445 8:-0.998285 9:-0.999113 10:-0.00716504 11:0.444923 12:-0.999536 13:0.62229 14:-0.999551 15:-0.967934 16:-0.818397 17:-0.985697 18:-0.964444 19:-0.987072 20:-0.898634 21:-0.980523 22:-0.844684 23:-1 24:-1 25:-0.903123 26:-0.804972 27:-1 28:-1 29:-0.962531 30:-0.880555 31:-1 32:-1 33:-0.972719 34:-0.959086 35:-0.969093 36:-0.951704 37:-0.964425 38:-0.952156 39:-1 40:-0.96181 41:-1 42:-0.950015 43:-0.947689 44:-0.966715 45:-0.973435 46:-0.985507 47:-0.986014 48:-0.972603 49:-0.985882 50:-0.965116 51:-0.980198 52:-0.99187 53:-0.972973 54:-0.976143 55:-0.997382 56:-0.979079 57:-0.987055 58:-0.981651 59:-0.979167 60:-1 61:-1 62:-0.986842 63:-1 64:-1 65:-1 66:-1 67:-1 68:-1 69:-1 70:-0.282242 71:-0.591595 
2.225806694300418 1:-0.921968 2:-0.984657 3:-0.997415 4:0.478536 5:-0.032438 6:-0.983193 7:0.395294 8:-0.993616 9:-0.983283 10:-0.0123734 11:0.444371 12:-0.998307 13:0.621526 14:-0.997575 15:-0.952559 16:-0.908055 17:-0.965603 18:-0.777635 19:-0.84365 20:-0.810571 21:-0.908634 22:-0.894992 23:-0.978906 24:-0.97447 25:-0.745425 26:-0.635032 27:-0.820247 28:-0.894696 29:-0.837122 30:-0.753732 31:-0.942453 32:-0.958726 33:-0.946555 34:-0.962949 35:-0.980686 36:-0.971238 37:-0.979851 38:-0.9733 39:-0.980451 40:-0.979708 41:-0.980318 42:-0.972996 43:-0.971697 44:-0.981563 45:-0.881088 46:-0.962733 47:-0.968531 48:-0.96347 49:-0.971765 50:-0.922481 51:-0.960396 52:-0.910569 53:-0.97973 54:-0.960239 55:-0.973822 56:-0.966527 57:-0.915858 58:-0.896024 59:-0.951389 60:-0.917526 61:-0.902778 62:-0.894737 63:-0.938144 64:-0.871795 65:-1 66:-1 67:-0.944444 68:-0.727273 69:-0.939394 70:-0.121996 71:-0.555226 
